49 300
cid__role 0.33413398 -0.017424995 0.022135088 0.040564295 -0.07328575 0.041543342 -0.18137169 0.08422547 -0.11208569 -0.07003727 -0.06555505 -0.05484351 0.1206426 0.018002931 0.1376495 -0.12534979 -0.030039385 -0.071056455 -0.013505655 0.00787487 0.02674303 -0.02111297 0.18568292 -0.043842874 0.115841985 -0.0412812 0.08533677 0.03751625 0.06542754 -0.20590155 -0.08162652 -0.16627674 -0.048047163 0.15977205 0.081999294 -0.15566802 -0.04216532 0.066798195 0.07005791 0.031242812 -0.037927065 0.045985933 -0.11721042 0.11337318 0.2269405 -0.008916123 0.22399056 0.048625004 -0.11119284 -0.039003056 -0.0034766984 -0.18556407 -0.012920632 -0.12020826 -0.040662434 0.012808853 -0.16051598 -0.0116475 0.18613383 0.0033992352 -0.16685139 -0.03659191 -0.02055079 0.11332946 -0.044146884 0.0786294 0.08022283 0.1209681 -0.013686863 -0.11201771 0.012278673 -0.0332302 -0.06983524 0.11659964 0.010657866 0.028972562 0.06358171 -0.012357794 0.016466854 -0.23469883 -0.05313895 0.17001548 0.11793125 0.10090743 0.086184606 0.10747916 0.02500996 -0.046027683 -0.14630578 -0.06414605 -0.22891244 -0.084119864 0.06384799 0.14588277 0.06319897 0.031391464 0.22002426 -0.015310699 0.004601341 0.039937392 -0.045459777 -0.023285737 -0.06271521 -0.14891686 0.13823871 -0.082055554 -0.13716948 0.1252387 0.02548591 0.11788723 -0.054460306 0.096379004 0.12890898 0.13771321 -0.030637331 -0.24127907 -0.088654384 -0.029012203 0.07005711 0.03936286 -0.02157709 -0.107815705 0.013769209 0.041458223 -0.03377793 -0.02329761 -0.063944735 0.2863548 0.0850792 -0.059132434 -0.016337646 0.13713254 -0.09350995 0.11398398 0.06387104 -0.0027411052 0.073700964 0.03607187 -0.021626035 -0.10061734 0.022135846 0.20356709 -0.1710241 -0.0042783166 0.15374453 0.09145296 0.019129664 -0.08041993 0.023619201 0.077694595 0.029229598 -0.10951797 0.08307295 0.1027562 -0.04883926 -0.10373346 0.01501271 0.0386573 -0.05729392 0.1540231 -0.11136135 -0.1370061 0.23669659 -0.1896572 -0.0786909 0.0616628 0.002156348 -0.0038599093 0.10717824 -0.025254322 -0.11765108 0.09712781 0.05064917 0.13634463 0.15500563 0.019428348 0.014297498 0.11640973 -0.11335235 0.035854943 0.13440137 -0.07310193 0.14843708 0.1047665 0.06646639 0.03798768 -0.114711836 0.09628461 -0.060197264 0.011704553 -0.027144732 -0.13177913 0.14911684 0.12781264 0.024918422 -0.12192983 0.07891416 0.021996556 -0.03465104 0.013431108 -0.020041212 0.11402558 0.015413078 0.0927969 -0.00072862743 -0.07954188 -0.04323242 0.029395347 0.1122303 0.002316079 -0.033081047 -0.09463668 -0.11772602 -0.0497572 0.045108203 0.020184614 0.11292196 -0.0136717055 -0.001480617 0.1431574 0.024218129 -0.09118475 0.0948146 -0.018843295 0.037362345 0.03951371 0.029859908 0.047123093 -0.0829121 0.16655993 0.15657042 -0.10859257 -0.06296488 -0.0936344 -0.12144747 -0.07340013 0.02672303 -0.0928332 -0.05448291 -0.30187628 0.0032783984 0.050114997 -0.013309768 -0.09302947 0.124307536 -0.10492675 -0.061788183 -0.13096532 0.051054418 0.14586182 0.07038688 -0.08575199 0.043306354 0.09272203 0.014544168 -0.04434401 0.06812059 0.08743942 -0.18074958 0.045453962 0.057293005 -0.10669982 0.000894479 -0.09484095 -0.19191973 -0.0317132 -0.044716608 0.06754701 0.10868951 -0.017141854 -0.039797343 -0.03347215 -0.027219618 -0.071846426 0.0592481 0.077538736 0.11286286 -0.07524293 -0.16442576 0.12546588 -0.13710484 0.16113156 -0.0035931861 0.05095103 -0.0034140118 0.116775006 -0.13875523 0.0040054326 0.056450184 -0.08449012 -0.0024815195 -0.1443462 -0.0012810307 -0.04918932 0.16252446 -0.022463934 0.042794723 0.0020001775 -0.15217923 0.069503166
cid__id 0.112484455 0.14344049 -0.0956238 -0.16451077 -0.0115994895 -0.063742116 -0.055987716 -0.017739123 0.1669343 -0.040306296 0.049879532 0.07992877 0.05610153 -0.14399308 0.04441801 0.122092314 -0.110791825 -0.006306933 0.009503949 -0.21051693 -2.1299093e-06 0.08106852 0.074802525 0.12488694 0.102899425 -0.018282149 0.20918472 -0.17921384 -0.04898856 -0.23356067 0.0074052406 0.16529329 -0.03502917 -0.0110490555 0.107160375 -0.10361616 0.09622211 0.122399665 -0.010942396 -0.08475665 0.02298823 -0.05796801 0.20326632 -0.03273248 0.07078386 0.017319493 -0.076831 -0.051192675 -0.12830356 0.008544107 -0.1595566 0.06467483 0.061613724 0.11869892 -0.049087662 -0.059924047 0.13089554 0.119250916 0.13748437 0.10455827 -0.102038205 -0.2046857 0.14832488 0.08248852 -0.047246773 -0.12822145 0.14147651 0.097991556 0.122329794 -0.07709509 0.008445067 -0.24925053 -0.03513132 0.014153431 0.10544081 -0.18763748 0.028707957 -0.05576832 0.025781916 -0.28533512 -0.07640661 -0.07265825 0.097524606 -0.092671484 0.098062284 0.18484403 0.042426396 -0.05925797 -0.22160433 -0.18301088 -0.18477894 -0.06593758 0.08590698 0.15343282 -0.007065573 0.1456704 0.20665486 0.10312637 0.020730568 -0.040308528 -0.0613365 0.13591185 0.008316077 -0.045186672 0.14186418 0.13211475 -0.058818903 0.1422467 0.04550543 0.1209948 -0.07215478 0.10289305 -0.026078966 -0.010726972 0.00096488616 -0.06381606 0.02294213 0.006145701 -0.19616225 0.029680269 -0.01447588 0.003447265 0.06590104 0.032336727 -0.03688432 0.037451625 -0.0017513973 0.05193672 0.0554922 0.13007338 0.022405872 0.03846779 0.094818264 0.055271644 -0.111720726 -0.056066737 -0.053536333 -0.024149522 -0.07558396 -0.009789999 0.05675197 0.0120917335 -0.024613682 0.1372179 -0.048524957 0.007730886 -0.064391986 0.010146301 -0.02430689 -0.028522821 0.116114296 0.043616585 -0.14183913 0.0034044187 0.06341493 0.0423465 0.027388474 0.08222689 0.11826361 -0.012012496 0.055186193 0.020906633 -0.039389778 -0.14133655 -0.098721914 0.012657163 0.08356146 0.072546914 0.19422233 -0.031788755 -0.22508866 -0.087408446 -0.01460526 0.02511751 0.09916981 -0.15742788 -0.07419431 0.047759704 -0.11371663 0.09295848 -0.036931023 -0.0066026957 0.09472181 -0.047527965 -0.12239397 -0.09320515 -0.0016733276 -0.09144864 -0.040290512 -0.08304884 0.09322294 -0.01054608 0.04699703 -0.056195334 0.0054772086 0.007710138 -0.10903346 0.0958948 0.031686373 -0.003068422 -0.03618315 0.08768887 -0.029745243 -0.05636904 -0.12510878 -7.563445e-05 0.108004995 0.06713755 -0.043761466 0.05011808 -0.007683561 0.12858163 0.07425034 0.038148183 0.043562252 -0.13221484 -0.012140641 -0.10685364 0.009421344 0.052500684 0.1617185 0.012697063 0.0707678 -0.028718699 -0.08799895 0.085320786 -0.009309604 -0.018986505 0.11549836 0.033362 0.041982096 0.06560508 0.087002076 -0.13871098 -0.0352215 0.015150027 -0.06266237 -0.14601754 0.15536281 -0.13549058 0.11597817 0.1633754 0.034607314 0.048566 0.20934972 -0.09015784 -0.110874906 -0.14443232 -0.07968868 -0.07730129 0.00203391 -0.042939186 0.052222922 -0.004331011 -0.06704821 -0.033075187 -0.04123495 -0.105849236 -0.23629786 -0.005054343 0.08252863 -0.14763603 -0.13986056 -0.053574078 -0.008390209 0.003284352 -0.03403556 0.011499859 -0.028807398 0.07216592 -0.02940071 0.06539562 -0.0074675153 -0.10494945 -0.08872821 -0.04831256 -0.024924746 0.028239056 -0.07404867 -0.15355225 -0.057486113 -0.0057028267 -0.13894928 -0.020586966 -0.15464856 0.004247793 -0.0014962456 0.03683984 0.019669747 0.043650847 -0.09200679 -0.066952445 -0.0031540778 0.092493676 -0.05795313 -0.029355036 -0.041120443 -0.15787226 -0.092595525 0.027288845
cid____search_id 0.054419976 0.15586281 0.0066755405 0.049984414 -0.07229996 -0.0004403105 0.00039323996 -0.069885135 -0.10350575 0.1132142 -0.06749856 -0.049706485 -0.07490876 -0.057824966 -0.16070367 -0.13609192 -0.28302345 0.0077599906 0.15299803 -0.21872188 0.071558006 -0.13212019 0.13585946 -0.08558482 0.020621007 -0.025364242 -0.038599834 -0.016555175 -0.1211169 -0.27734125 0.017929746 0.23037876 -0.18218061 0.00592105 0.18250257 -0.020817708 0.049299195 0.0928335 -0.114622615 -0.10347265 0.035594534 -0.052752554 -0.040425975 -0.023001524 0.15459596 0.05924688 -0.08632143 -0.15429845 -0.124931596 -0.020054748 -0.28758225 0.038917176 -0.028879944 0.10450361 -0.06903838 -0.02919518 0.15639374 -0.04658678 -0.0076935957 -0.014454373 -0.04521813 -0.08966939 -0.029582536 0.014212643 -0.02251762 -0.23039481 -0.11429523 -0.03273169 -0.03406581 -0.095939554 0.1352984 0.15994328 -0.16221307 0.12113712 0.025769379 -0.286069 0.17892252 0.073921874 0.04252101 0.047790974 -0.016124018 -0.008445703 -0.009916226 -0.067755334 -0.08625166 -0.0036246846 -0.06652774 0.085113645 0.07077755 0.0077091423 0.056893114 -0.10368223 -0.003526786 0.012127246 -0.06595015 0.04343914 -0.05310428 -0.063087806 -0.069109924 -0.022587355 -0.034232125 0.06466547 0.03526684 -0.09230967 0.25042564 0.0074132285 0.045275725 0.008643526 0.09243267 0.088911906 -0.02643814 0.052330375 -0.029832589 0.03603957 -0.06528827 -0.09850724 -0.026611429 0.06514991 -0.0286116 0.10098382 0.05578308 -0.14242034 0.0616876 -0.038487017 -0.11335623 0.068836644 0.039985456 -0.03708312 0.13424902 -0.0323434 -0.077697404 -0.14626251 0.11310258 -0.1745748 0.020310502 -0.0654848 0.037770133 0.083654925 0.02313945 0.031802803 0.06072581 -0.062194213 0.07757208 0.059498485 -0.019753767 -0.20101714 0.058023386 0.17386898 -0.012956665 -0.06164317 0.0018002405 -0.09306215 0.032942973 -0.061888345 -0.028345363 -0.11616402 0.089147896 0.0012497182 -0.10502496 0.15560174 -0.055491246 0.14963411 0.084257446 -0.03667054 -0.018231578 -0.06933786 -0.07110771 -0.16177249 0.19003099 -0.20910004 0.027291346 0.03616316 -0.0897876 0.08790391 0.17602018 0.02572966 0.055922456 0.037303157 -0.19254105 -0.04757016 -0.15446799 -0.018514106 -0.13478434 0.068631634 0.03974113 0.10618587 -0.0064657386 -0.0819748 0.03186523 0.028189797 -0.14665036 0.07298761 0.0010723015 0.07086813 0.086619325 0.1014875 -0.08615518 0.03252869 -0.05744975 -0.014194895 -0.080086686 -0.09654041 0.15920906 0.025918832 -0.06595802 -0.055275716 0.1020324 0.0617981 0.020581352 -0.053774033 -0.035569683 -0.06151583 -0.040632337 0.007644937 -0.06891312 -0.055255275 -0.055417974 0.019103501 0.19834101 0.07915007 0.020962778 0.07640196 -0.12671153 -0.17222583 0.10279969 -0.13381201 0.05936993 0.010368352 -0.020309513 0.005556944 0.01449008 -0.031956848 -0.017682731 -0.045507226 -0.15132414 0.0072339284 -0.034862395 -0.11090701 0.16632454 -0.20223671 -0.07524931 0.14324136 0.08689623 0.1310997 0.16469666 0.15460546 0.023252467 0.010627182 0.071977995 0.1130097 -0.01649683 0.0101180645 -0.23213954 0.13134897 0.011244089 -0.07519555 -0.033305038 -0.059952643 -0.19363986 -0.018498171 0.024743676 -0.06407403 -0.05608516 0.08242934 -0.024716023 0.10543536 0.09361488 0.07207583 0.12322095 0.19157195 0.07544588 -0.13788934 -0.1150619 -0.16307016 0.09758561 0.020345269 0.072004095 -0.0018443121 -0.09102225 0.01115355 -0.11527342 -0.03758531 0.0360444 -0.20779963 -0.055784512 0.12871492 0.07652525 0.18312627 0.048908714 -0.12676476 -0.002751053 -0.12798533 -0.0028439742 0.19837257 0.20062788 -0.03859658 0.07675288 -0.16742198 -0.29061753 -0.022256184
designer 0.15143903 -0.27269858 0.018209986 -0.16791809 0.2553066 0.20516288 -0.24609523 0.10088421 -0.35068026 -0.17521532 0.01596217 -0.034374263 0.102059774 -0.05374 0.13211355 -0.030208554 -0.0896017 -0.13327576 0.11434676 -0.21575235 0.001968749 -0.019324519 0.11585786 0.053012855 0.1868201 -0.014552926 0.14758399 -0.085873686 0.07504851 -0.24855907 -0.0019765974 -0.08795664 -0.0054926733 0.051626727 0.03394432 0.013307681 0.012775844 0.04217258 0.020546788 0.032984566 -0.10177179 0.11254926 -0.032022454 0.043954324 0.03273876 0.11781125 0.27975193 -0.004350933 -0.13602047 -0.0748887 -0.023459794 -0.03571098 -0.0043833163 0.0083282115 0.20709144 -0.022890825 -0.109942764 -0.008562523 -0.005947554 -0.035234667 0.0006954902 -0.10540866 0.018220939 0.113726094 -0.08023948 0.03691142 -0.08235101 -0.06921218 0.0021276767 0.1465958 -0.0019350961 -0.038265508 -0.0073093656 0.051975634 -0.0900875 0.097480364 0.116528384 -0.050837435 0.011575937 -0.041269336 0.057212573 0.08135583 -0.0056092157 0.011401072 -0.015930917 0.04340005 0.0060293963 -0.046585392 -0.06009129 -0.06456658 -0.11319537 -0.014804241 0.064195 0.058165878 0.045511834 -0.018285356 -0.043926287 0.0013108889 0.071799554 -0.018852307 -0.038123652 0.047122438 0.036256168 -0.0051634237 -0.0152239995 -0.11596586 -0.059046417 0.07808215 0.0063182837 0.05707524 -0.121419035 0.066015705 0.087421715 0.14509507 -0.040720228 -0.039206024 -0.08593274 0.054568436 -0.06578292 0.027307197 0.07368354 0.029119415 0.14771186 0.042183448 0.06477177 0.109251164 -0.06813646 0.17364712 -0.1252875 -0.12555434 -0.001563183 0.22061823 -0.043727305 0.073692665 0.046562653 -0.053528026 0.06436667 0.09916683 0.020160122 0.04103131 0.19993855 0.13498273 -0.104831085 0.15401141 0.32426807 -0.07452357 -0.06291269 -0.054033812 -0.05963696 0.17689748 -0.030595407 0.10151329 0.14622882 0.17687845 -0.098344274 -0.016085094 -0.052378207 -0.08114703 0.038913593 0.20913671 0.0026104143 -0.0015290482 0.24055323 -0.13785133 -0.1831217 0.14748575 -0.05023742 -0.0076272995 0.041072454 0.087157555 -0.118941054 0.18248615 0.14808543 0.12960081 0.0885839 0.095528744 0.01807887 0.02389701 -0.12918796 -0.023751613 0.06249491 0.1445232 0.16609673 0.053895634 0.10081493 -0.049725782 -0.16363066 0.07353317 -0.21319108 -0.16359162 0.093184546 -0.12516426 0.04817654 0.22530606 0.1832249 -0.25699818 0.13128984 -0.020948496 -0.0374142 0.083178714 -0.01655435 0.037115023 0.11969385 -0.087121956 -0.0050560324 0.0685662 0.11169534 0.060625613 0.012694116 -0.10450818 -0.09372455 -0.07645136 -0.06803887 -0.034868024 -0.00679457 -0.0877614 0.17879811 0.037148178 0.10740063 -0.04458927 0.060138494 -0.021388749 0.12157016 -0.023936864 0.040496103 -0.008066395 0.11882515 0.02493069 0.20200677 0.12040753 0.055976238 -0.09360826 0.012592417 -0.25436303 -0.36546713 -0.08867629 -0.0032419693 -0.26273057 -0.0003972011 -0.32256672 0.04964813 0.07121996 0.1838724 0.050467268 0.24126549 0.026073735 -0.00079366425 -0.1267177 0.11379059 0.16431755 0.13715126 -0.26886708 -0.031512335 0.05959936 0.010022493 -0.068493865 0.039085366 0.13179427 -0.018065693 0.121154316 0.16976583 -0.021745741 -0.079746895 -0.0697193 -0.18101658 0.019908015 0.01026382 -0.024548545 0.049048904 -0.044963 -0.07156523 -0.05706587 -0.07656664 -0.26795784 0.03947753 -0.090278395 0.13263346 -0.0061719203 -0.011090334 0.1063672 -0.30868924 0.25927845 -0.059432548 -0.11059597 -0.11490938 0.20526467 0.019927735 0.3001953 0.003985623 -0.14276971 0.039850153 0.010060562 -0.078558214 -0.09122742 0.017124854 -0.044328175 0.12162058 0.05571242 -0.02673228 0.104646884
idx__8 0.1935525 -0.16400324 -0.015121621 -0.053369578 0.08500603 -0.044725023 0.16509661 -0.01204839 -0.20253375 -0.080117814 -0.03987335 0.12980276 -0.14754955 0.15394664 0.07894722 -0.17693815 -0.027006365 -0.07421248 -0.051908687 -0.23696001 -0.13086955 0.036972206 -0.076353565 -0.025286231 0.0021458573 -0.12829271 0.14417882 0.093295924 -0.0532142 -0.04569966 0.07965453 0.10003706 -0.054630045 -0.0069989264 0.016171893 -0.09058563 0.09924503 0.095499866 -0.203024 -0.06564305 0.15830271 -0.009388943 0.13768817 0.076163635 -0.001462146 -0.03574475 -0.10530675 -0.12770486 0.07575342 0.0258209 0.17153682 0.11724095 0.096374735 0.012477278 0.029590992 -0.031960625 0.11884704 0.088580556 0.18673706 0.12761702 -0.09280135 -0.07755711 -0.113048226 0.047270223 0.012582 0.085789695 -0.061541848 0.039910607 0.15696308 -0.15283377 0.024765987 -0.02755835 0.014275128 0.07207924 0.10002465 0.008904754 0.11221551 0.026606454 0.075684376 0.099218495 0.014721591 -0.067377284 0.13765335 -0.1297431 0.06958512 -0.01495514 0.045126043 -0.053182397 -0.11660512 -0.08216659 -0.030223265 -0.017284093 -0.0861636 0.088919334 -0.08948784 0.04920026 0.13640445 -0.036077324 0.05370351 -0.14116172 -0.13902499 -0.013610064 0.065241635 0.016698696 0.057987865 -0.04382507 -0.11025392 -0.08412025 0.008636118 0.0673148 0.054812577 0.23560016 0.02097683 0.044465367 -0.14948504 -0.14321904 -0.05687444 0.009526912 -0.04111431 0.0069077644 0.08169571 -0.044765506 0.13793497 0.008495651 -0.038056117 -0.17261803 0.16466872 -0.0803487 0.06827503 0.067918934 -0.014086686 -0.10370292 0.20999949 0.06698476 0.00065624935 -0.13895749 0.10750178 0.14001468 -0.11586076 -0.12992428 -0.0034979125 -0.020474613 -0.103677146 0.16098543 0.12644629 -0.24635975 0.07622071 0.027242 -0.08962056 -0.119196005 0.18241787 -0.17901623 0.13134092 0.034097612 -0.20234407 -0.082224935 0.074182406 -0.035828266 -0.12359829 0.16235532 -0.26332343 -0.05737016 0.17894644 -0.1598792 -0.0065365755 -0.17043972 -0.17430794 -0.07713257 0.14447843 0.08997054 -0.19614418 -0.019182004 -0.07600739 -0.172448 0.14238939 -0.19147158 -0.15212284 0.13201742 0.0828583 -0.0545941 0.22930913 -0.0455511 0.028437909 0.070944145 0.049358238 -0.100899465 0.10163126 0.12890387 -0.024046615 0.10659335 -0.106192626 -0.0723442 0.12889798 0.118827075 -0.04669977 -0.12232655 0.2890581 0.09298226 0.035131827 0.08701952 0.023326635 -0.12734537 -0.015006826 -0.09888678 -0.27666315 0.021188756 0.05970556 0.09258281 0.13020837 0.08661275 -0.046305794 -0.005191458 -0.117735006 0.09704231 0.1585861 0.024165243 0.018071858 -0.22719546 0.17569481 0.3426675 0.07095762 0.06852723 -0.015584829 -0.059583604 -0.07923241 -0.13316475 0.056137513 -0.031004163 -0.020296723 -0.080194205 0.2363976 0.070667274 0.1938848 -0.14537482 -0.26486087 -0.16376251 -0.054143038 0.12605262 -0.13444704 -0.1975948 0.14613214 0.23930983 -0.1435843 0.17360304 0.08637759 -0.17276463 0.014030561 -0.24153464 -0.0065459223 0.118912116 -0.047515932 -0.14965513 0.06913855 0.011753833 0.06684333 -0.051724218 -0.07812756 -0.09756692 -0.29045677 -0.013051 -0.065996 -0.16155787 0.027708728 0.054047972 0.16233276 0.09278702 -0.07376908 0.100876614 0.047129117 0.053708654 0.09606258 -0.06256143 -0.027868673 -0.11532873 -0.029367369 -0.0011108561 -0.04101574 0.054610226 -0.04593767 -0.04069251 -0.27121723 0.109094925 -0.19156149 -0.09048946 -0.12890811 0.093421735 -0.014064533 0.12758668 -0.14786367 -0.070245296 -0.017408898 -0.15985593 0.13646618 0.33016557 0.07802515 -0.08456758 -0.017416626 -0.40164047 -0.20191388 0.053954907
idx__4 0.09286624 -0.088687524 0.032261264 0.041727796 0.068789825 0.06523815 -0.2174784 0.0043623336 -0.22421531 0.009851832 0.083014406 0.2466696 0.27173486 -0.3709265 -0.07678983 -0.25066352 -0.2795725 0.12070366 -0.10408447 -0.10554413 0.05899388 0.14914706 0.18255271 0.015715878 0.050302606 -0.026844664 0.14137763 -0.0083298115 0.05136802 0.118564725 -0.09891659 0.2884239 -0.04248378 -0.16259289 0.29097086 -0.056806434 0.13115777 0.22635734 0.19837652 -0.0711968 -0.056934237 0.046649974 -0.00944848 -0.061179187 -0.012884892 0.010994667 -0.18197055 -0.13436843 -0.043291863 -0.068113424 -0.089697644 -0.044929154 -0.019033356 -0.058504518 -0.026788702 0.14353785 0.033662513 0.064618744 -0.072208 0.06723655 -0.043192305 0.035680294 -0.06686101 -0.15497382 0.1594128 0.06365578 -0.07838137 0.11779237 -0.08000792 -0.03639039 -0.008340874 -0.14140588 -0.004471073 0.12629892 0.14906536 0.08182253 0.017191408 0.010561162 -0.11410044 -0.089077756 -0.03804198 -0.071901396 0.04219379 -0.11710347 0.1723502 0.118993476 -0.15812781 -0.061575443 -0.07017965 -0.118084356 -0.16644469 -0.11788577 -0.048665605 -0.0057126572 0.053764235 0.058878556 0.16172266 -0.14384437 -0.20602253 -0.23522657 -0.09879795 -0.065884605 -0.148601 -0.02631439 -0.008829636 0.10011994 0.027726613 0.05691529 -0.11833924 0.17786452 0.14195172 -0.026583277 0.057567906 0.019496959 0.05410766 -0.2371132 -0.024789905 -0.16931492 0.10829972 0.02605148 -0.11689789 -0.02286186 -0.038476564 0.002339976 -0.04581703 0.111640684 0.063251704 0.04811742 0.055576917 0.098320425 -0.04707916 0.12134138 -0.11209126 -0.021435246 -0.1604608 -0.02385932 -0.1488653 0.09827085 0.01984032 -0.034963235 0.09817648 0.0030140425 0.032975845 0.18546306 0.06851475 -0.04040751 -0.15368626 0.0031614548 0.13963017 0.09837379 0.24366306 -0.115086555 -0.0013604605 -0.061899252 -0.09828231 -0.11682402 0.04741399 -0.085436344 0.033542514 0.19292897 0.004465182 -0.08736492 0.10852481 -0.25588623 0.042423908 -0.08877533 0.094685845 0.03322192 0.19001494 -0.06387195 -0.14144982 -0.05611564 -0.07386634 -0.00091503555 0.10108052 0.017829591 0.13199563 -0.056475963 -0.24454828 0.03327741 0.0995425 0.11379544 0.03222292 0.034392454 -0.13649899 -0.07257318 -0.067359544 -0.029148066 -0.1725232 0.10789197 0.1553475 0.026543248 -0.0986197 0.10311415 0.1694846 0.2054662 -0.038235415 -0.04810956 0.11339254 0.037143186 -0.09315773 -0.24475811 0.07095329 0.12565793 -0.19029856 -0.16048801 -0.11549186 -0.022180108 0.080310725 -0.10101362 -0.036112312 -0.023044296 -0.1236731 -0.082537904 0.07997364 -0.102417715 -0.037874784 -0.118327215 -0.050966192 0.19216922 0.06644474 -0.10296987 0.22374211 0.11632941 -0.13449436 0.11121355 0.036094364 -0.04164046 -0.050662268 0.117053404 0.22081171 0.19219518 -0.02485602 0.002869133 -0.22304206 0.04960147 -0.114643276 -0.082326606 0.23025398 0.033200677 -0.12401728 -0.091869794 -0.0006083657 -0.21207538 -0.05386172 0.058917537 0.00032061903 0.104683116 0.044183955 -0.21170485 -0.13429417 0.15256625 -0.12558925 0.073745236 -0.0073145176 -0.022986451 -0.046880584 -0.008749186 -0.05804742 -0.04976372 0.08825756 -0.07296009 -0.036465567 -0.08327886 0.04217281 -0.23090401 -0.0055215526 -0.048863847 -0.19014011 0.09271025 0.010137707 0.09779027 -0.14170742 -0.04990138 0.07556205 0.07770369 -0.14167537 -0.12289488 -0.07007189 0.00018412137 -0.24754962 0.055816475 -0.24940138 0.10544589 -0.12799893 0.14573763 0.21079129 0.14194484 -0.10903454 0.08061806 -0.18132108 -0.33670118 -0.0418902 0.21105276 0.12296621 0.005046714 0.028098963 -0.13662906 -0.13104452 -0.045194183
idx__9 -0.0785738 -0.027758919 0.09683518 0.0082175685 0.18476716 0.21092324 0.16337317 -0.055658028 -0.24424411 0.022627527 0.15635541 0.28114256 0.29088873 0.0035374165 -0.048850123 0.002297522 0.0020169157 -0.06689414 -0.03397381 -0.0456597 0.092602335 -0.09358868 0.16392744 0.06373061 0.073146924 -0.17359789 0.15734191 -0.04040854 -0.0026405125 0.18856646 0.17081858 0.110325165 -0.062497128 -0.112589 0.24982515 -0.047305256 -0.0525555 0.0667382 0.060252443 -0.33067122 -0.004510894 -0.102875896 0.2115272 -0.11429548 -0.024482576 -0.10113056 0.040372815 -0.20260806 -0.016501311 -0.009171507 -0.22675458 0.0451046 0.06724765 0.13685209 -0.26928014 0.027611343 -0.025665129 -0.13697219 0.21373276 0.039131142 -0.10804197 -0.053040244 -0.06978641 -0.1854454 0.20914444 -0.17814076 -0.040874593 -0.1275223 -0.1217004 0.019896282 0.10696749 -0.01888097 -0.043787636 0.023714619 0.17294113 -0.19913808 0.011119902 -0.18344577 0.061210327 -0.23883744 -0.10243832 -0.028335875 0.09351136 -0.12637022 -0.12480784 0.09425566 0.057559382 0.12141144 -0.15926306 0.00077844097 -0.06783322 -0.17132139 0.058180097 0.20500687 -0.10703899 0.1525642 -0.05045618 0.063695915 -0.14563198 -0.07612177 -0.13262804 0.07477844 0.0041496954 -0.13962777 0.11257453 -0.0053640422 0.12870465 0.07586729 -0.003713793 -0.010687889 -0.018059932 0.11393509 0.13790101 0.1663408 -0.046790138 -0.11705194 -0.062788695 -0.05592106 -0.08261828 0.10359615 0.005906179 -0.10775395 0.105628304 -0.03129272 0.047501422 0.04464997 0.10563321 -0.07967158 0.15831883 0.06622772 0.09121255 -0.121449955 -0.0027227418 -0.102276504 -0.02509149 -0.040775947 -0.10110564 0.093745016 -0.100476645 -0.22828104 -0.025127003 0.08713216 -0.04747694 0.09186009 0.105026156 -0.16311032 -0.21261178 0.072998986 -0.1391897 -0.1887256 0.0034633179 0.011229501 -0.07225788 0.06896107 -0.21709752 -0.009024456 -0.015965238 0.14104281 -0.20821404 0.19541822 -0.2669682 -0.006687368 0.018178893 -0.26569125 -0.08043199 -0.01779548 0.14765446 -0.03724492 0.11582711 -0.042528596 -0.12463816 0.010529701 -0.08654785 -0.016899643 0.19224086 -0.02347233 0.10478382 -0.0114396345 -0.20058247 0.09723989 0.064551964 -0.018014403 0.082341865 -0.11766146 0.031517394 -0.15685885 0.026952123 0.020417336 -0.00788374 -0.061445955 0.03590833 -0.1793578 0.0044624764 0.067888744 0.12527479 -0.11462496 0.042923234 -0.0381739 -0.2622118 -0.07401266 -0.03670893 -0.16453075 -0.052122187 -0.061245106 -0.09326627 0.012652201 0.020534746 -0.07505154 -0.008654951 0.15606393 -0.0039032912 -0.08058484 -0.18349217 0.08330444 0.038225904 0.008712928 -0.104122415 -0.0728049 0.053963784 0.15548262 0.12026795 -0.029661836 0.1253896 -0.11235648 0.17486402 -0.0033263005 -0.12251999 -0.10985567 -0.028922645 0.12371332 0.07820137 -0.1651288 -0.028049968 0.03221162 -0.021385297 0.19333342 0.0432283 0.066215955 0.11273589 0.024788247 0.15921836 -0.05067882 0.1915763 0.10754019 0.053339545 0.013068326 0.064370185 -0.14087172 0.14286718 -0.15609685 -0.14752436 -0.06827091 -0.083360076 0.03280445 0.0021357734 -0.0021870576 0.030505681 -0.19064671 -0.014138525 -0.11139243 -0.0028136633 -0.11940661 -0.064866014 -0.08376138 0.003665606 0.10910893 0.10269134 0.018273843 0.049402017 0.0016873106 0.09731036 -0.10123706 0.14299767 -0.08757665 0.012170711 -0.009228187 0.04318039 -0.00914161 -0.12769407 -0.027832596 -0.14919817 0.19878978 -0.19118859 -0.19541132 -0.03455877 0.119302206 -0.14528614 0.20519866 0.11750436 0.048179105 -0.14710627 0.03827678 -0.13576229 0.09845297 0.21404542 0.102072954 -0.18781911 0.026599234 0.20559637 -0.042125396
idx__0 0.110410094 -0.46191132 0.06849029 0.20167328 -0.030084467 -0.10338482 -0.16654788 -0.09755656 -0.35495022 0.12044711 0.1643902 0.18992615 0.22154658 -0.42033502 -0.12605543 -0.104004905 0.14367686 0.06311548 -0.03546428 -0.046028893 0.06852241 -0.045623187 0.16724372 0.07540417 0.026951103 0.12735556 -0.04902254 -0.113529086 -0.011047074 -0.12125272 0.01598116 0.04969504 0.03613359 -0.1082268 -0.043613445 0.12115772 -0.006391812 0.06814287 -0.105698995 -0.031715445 -0.019530453 -0.24728529 0.3112002 -0.096136935 0.0037407791 0.16325885 -0.039443474 -0.1333203 -0.32609838 0.018840617 -0.22276561 0.009371749 0.1470266 0.14583285 -0.25130382 -0.026318574 0.18554683 0.008487542 0.072962746 0.2283782 -0.25196156 -0.06745519 0.20615791 -0.019161526 0.029575529 -0.2446868 -0.043271612 -0.10030079 0.07237289 -0.08162357 -0.007099832 -0.16447154 -0.08345043 -0.03867518 -0.047097478 -0.14760432 0.12519215 0.13581009 -0.07628735 -0.07908693 0.020070868 -0.1040741 -0.039812226 -0.14551035 0.18661214 0.094470955 0.08867505 -0.034670275 0.011020392 0.15503268 -0.21210815 -0.116500445 0.07854294 0.1742393 0.14638337 0.15836172 0.10074406 -0.21866643 -0.050856117 -0.06283308 -0.17187804 0.09392722 0.079320766 0.05275337 0.06722124 -0.00790454 -0.14907286 0.01523009 -0.15638767 0.07298147 -0.080643006 0.19619441 0.039834965 0.12638548 -0.10785137 -0.1599443 0.13028283 -0.17532769 0.06364161 -0.0984792 -0.1177555 -0.039887406 -0.023823278 0.16305067 -0.083500564 -0.17196256 -0.053400017 -0.023653502 0.05483231 0.009226404 -0.18117245 -0.07304646 0.21494876 -0.015497174 -0.12007554 0.010272059 -0.1424024 0.28392288 0.08785434 -0.037371524 0.083484635 -0.022736799 0.10547306 0.17043775 0.034029424 -0.034752537 -0.025750697 -0.010364687 0.070260815 -0.044530205 0.057438318 0.123848766 0.07661005 0.02186454 -0.123794176 -0.1908059 0.016028685 0.08784658 0.06300702 0.069515295 -0.08262827 -0.03328528 0.038050774 -0.14364722 0.13228932 0.09867669 -0.082437955 -0.0076544965 0.019289654 -0.15614972 0.12105076 -0.030081548 0.03654889 0.10854022 0.25231627 -0.24954045 -0.07380772 0.039991803 -0.045645893 0.034698293 0.11617929 0.12322209 -0.091943406 0.02168313 -0.07609139 -0.29773596 -0.17764105 -0.06701555 -0.22054635 0.022596793 -0.063946486 -0.01716084 0.09896026 0.007131922 -0.04348546 -0.11441152 0.12002884 0.05690978 0.0518335 -0.0453253 -0.048560586 0.09987904 -0.1157859 0.15452337 0.033007417 -0.20799181 -0.10092525 0.071512476 0.020061988 -0.13279206 -0.1537697 -0.10080488 0.052057907 -0.019250475 -0.08278723 0.053560138 0.0946991 -0.1575377 -0.050184213 0.103564024 0.055289518 0.06148177 -0.12075159 -0.11281988 -0.0036050947 -0.17489617 0.08408016 -0.10034452 0.02883287 0.07356931 0.18246864 0.06500021 -0.12473456 -0.0016297975 0.17154169 0.0012206958 0.11100348 -0.035953257 0.07320587 -0.071075976 0.095874526 0.1295027 0.07536054 0.039879918 0.1473085 -0.06550288 -0.11860609 -0.07815187 0.045916706 -0.08594364 -0.11702462 -0.026265608 -0.112589344 0.0069820364 0.17183311 0.012080112 0.07239316 -0.12199944 -0.27739522 0.023206819 -0.0025756229 0.06399635 -0.009770722 -0.0268086 -0.09207194 0.22997414 -0.0025763393 -0.031184345 0.1395692 0.16767809 0.0023800377 -0.1530338 -0.10142537 -0.2467825 -0.05587855 -0.16235316 -0.01634724 0.17464174 -0.09893734 0.032352097 0.0846998 -0.1255863 0.12771936 -0.06740443 -0.11848459 -0.020022182 0.049157746 -0.016550133 -0.100812316 -0.09052131 -0.027176268 0.09527786 0.08946623 0.19607015 0.15364364 -0.12158932 0.036419153 -0.08352035 -0.24206042 0.110442325
idx__10 0.09065918 -0.23689775 0.101751484 0.14616585 0.073766135 -0.047294855 0.093531504 0.043605838 -0.36960563 -0.03736188 0.0029739062 0.061737027 -0.050016887 -0.42372638 0.0068380944 0.05824936 -0.006334582 -0.18121177 -0.01533372 -0.12817645 -0.14591824 -0.08870799 0.18952496 0.010668732 0.022848655 0.014849845 -0.072413765 -0.09997985 0.006007894 -0.2779268 0.15004449 0.05764257 -0.045212317 -0.061922617 -0.07404664 -0.037883025 0.20314004 -0.042511735 -0.029624075 0.101096764 -0.08710653 0.011739956 0.047028422 -0.016740441 -0.11013965 0.08815079 0.22359693 0.10753199 0.0036844332 0.076237366 0.13061805 0.17233953 0.068882056 0.033592988 0.12720957 0.05576103 0.07790902 0.008408243 -0.04977688 0.10443668 -0.0577363 -0.22055776 0.14400893 -0.06707322 -0.016793486 -0.1855747 -0.12048491 -0.120151095 -0.06246293 0.05492655 0.16192548 -0.14526486 0.039250553 0.05035183 0.06378353 0.016073069 0.097620174 -0.1905654 -0.05818605 -0.031151788 -0.022309858 0.095516376 -0.08229197 -0.03165663 -0.054290902 0.069889806 -0.19771658 -0.06361259 -0.13555726 -0.102537334 -0.035997357 -0.056147423 0.043097198 0.08466853 0.16821998 -0.06366367 0.058369108 0.16526 0.03327227 -0.255284 -0.12870976 0.16541658 -0.0528771 -0.106112845 0.20495105 -0.01058664 -0.03690839 0.047217116 0.054211237 0.09419875 0.017702347 0.3007773 0.19725536 0.37811327 0.00048244346 -0.089518666 -0.03973906 0.053347964 -0.28184044 0.19896866 0.07923424 -0.13141571 0.35179186 -0.054269325 -0.19200012 0.228271 -0.08066273 0.123315886 -0.1513186 -0.07255049 -0.00058364193 0.124290556 0.026868034 0.03735339 0.014851622 -0.22168341 0.1459128 0.18972772 -0.16458873 0.026047468 0.0843817 0.05342378 0.007681887 0.34181175 0.3061054 -0.2111197 -0.24213515 -0.017390637 -0.21236537 0.18714982 0.042578265 0.19594665 0.041707043 0.093009524 -0.1872909 -0.053054452 0.011024858 -0.09134864 0.14754257 0.06165967 0.11313889 0.1980293 0.14681558 -0.23699227 -0.0879169 0.037932664 -0.04902856 -0.073252164 0.057504885 -0.05717356 -0.04810588 0.2096278 0.020646548 0.0062013986 0.099337615 -0.12870657 0.0069792527 -0.12887952 -0.11820892 -0.022487305 0.18205316 0.2641216 0.10499429 -0.03235376 -0.00071205036 -0.11192459 -0.11996317 -0.065127 -0.054999895 -0.13648711 0.013674727 -0.043666575 0.060283724 0.16870776 0.21009341 -0.13175887 0.14258505 0.05857582 -0.07997609 0.2788663 -0.16510756 -0.17234029 0.08663494 -0.009602589 -0.055449948 -0.069101915 0.19140512 0.029015861 0.04142201 0.031061165 -0.11758566 -0.031063205 0.12818113 -0.02875044 -0.023450492 -0.24097094 0.12197233 -0.10418107 0.14915638 0.028580965 -0.018043725 0.10040365 0.032166835 -0.040555943 -0.089577876 -0.03211446 0.20569445 0.039005417 0.21806717 -0.075709626 0.059931163 0.062238317 0.09416263 -0.2692062 -0.057439998 -0.11578625 -0.10992065 -0.054524172 0.047216963 -0.06806339 -0.032607593 0.08777199 0.11814248 0.1166563 0.12456976 0.16315904 -0.06727827 -0.02573505 -0.07111817 0.0977091 0.17473893 -0.2662606 -0.023940464 0.013343897 -0.12618233 -0.00049785944 -0.03354477 0.10301748 0.12660587 0.10603736 0.055733424 0.10952855 -0.17989509 -0.09539243 -0.033919577 -0.061660606 -0.008056377 0.02608469 0.07493882 0.17526703 -0.10115477 0.041210745 -0.033294324 -0.13098933 0.17059301 -0.12504299 0.054626074 -0.021713952 -0.042156655 0.07976809 -0.291869 0.02565731 0.060519427 -0.05984051 -0.03540172 0.034732983 0.04718843 0.08647815 -0.0016990375 -0.09573916 0.059768006 0.033958334 -0.13169561 0.14607759 0.051549196 -0.10566575 -0.0027207609 -0.054379947 -0.09122706 -0.123957105
idx__1 -0.16030851 -0.021461146 -0.08367865 0.08594747 -0.17866562 -0.08330315 -0.08663788 -0.058027234 0.19298661 -0.064863555 -0.000963318 0.09355654 0.057325963 -0.124512315 -0.047789518 0.10678694 0.046163425 0.15151413 -0.09658782 -0.14034766 0.13342765 0.07215448 0.120030954 0.07584918 0.15883802 0.095051534 0.08681842 -0.16154842 0.024132738 -0.030307751 0.007923807 -0.08079742 -0.049623903 0.06523242 -0.016461942 0.03160392 -0.06381742 0.2526045 0.058289777 -0.15750429 -0.03009501 -0.13830869 0.06870589 -0.2689216 0.07644182 -0.017481048 0.13737439 0.08097171 -0.045698985 0.1240059 -0.08065756 0.05429406 -0.09788521 0.21440405 -0.088501185 0.17932074 -0.06410885 -0.005734802 -0.12562752 -0.06518533 -0.13432762 -0.1500795 0.067753166 -0.028150316 -0.1321915 -0.17202602 -0.014056594 -0.21672493 -0.038341165 -0.25495654 -0.11555337 0.13720556 -0.02267196 -0.023456646 -0.12090992 -0.18132895 -0.09909607 0.045635663 0.022972707 -0.17708574 -0.19418436 0.054636564 0.059692856 -0.08576407 0.022563996 -0.07696443 -0.010838184 0.008762275 0.05507101 -0.101313904 -0.16138284 -0.22468281 0.16347605 0.14973173 -0.02626417 0.006630994 0.08690799 0.20059489 -0.08390531 -0.05619684 -0.18017071 0.192563 -0.16415498 -0.14145757 0.28524867 0.15217455 0.03700725 0.051003817 0.053958964 0.10828571 -0.1515212 0.03807723 0.24670683 0.11244906 0.110801384 -0.10096591 0.05561193 0.0040593697 -0.010300968 0.13724221 0.0312661 -0.18780436 -0.16770813 0.0029882614 -0.02744259 0.05236532 0.09450762 -0.02452965 0.032745473 0.16489556 -0.043899387 0.18481709 0.18520737 0.18664551 0.061533265 -0.023331221 -0.022129787 0.06316501 0.17222063 0.027559318 -0.07385591 0.11617187 -0.059189253 0.05410329 0.10378322 -0.073585026 -0.017054245 0.030265037 0.06003911 -0.07047745 -0.035378374 0.039226856 0.00020633996 0.13520293 -0.013373785 -0.2528627 -0.049560193 0.1111024 0.16578688 0.13559304 -0.24236643 0.05366021 0.09527156 -0.24139544 0.07563604 -0.18662788 0.09657603 0.039824307 0.2317303 0.063412994 -0.11934151 -0.1287576 0.03253619 0.0046853414 0.09777964 -0.09041868 -0.14142467 -0.1298839 -0.0019550866 0.05443832 -0.062286206 -0.21555719 0.057483952 0.010670353 -0.1460543 -0.1816789 -0.15850148 0.09022615 -0.14674997 0.043787807 -0.00209985 -0.19847934 0.069627084 0.054146264 0.17320177 0.10404387 -0.0048947926 -0.046076186 -0.079047464 -0.035366137 0.046582922 -0.09896475 0.22482403 -0.13472703 -0.030930474 -0.0973893 0.10416208 -0.059815 -0.074815854 -0.03028198 0.14040537 -0.027633581 0.08610928 0.072359346 0.16280377 -0.17562397 0.16225632 -0.0029570032 0.0153520405 0.055843256 0.0967661 0.004316928 0.21487972 -0.10476029 0.033624995 -0.24635185 -0.004750889 -0.12921199 -0.09686985 -0.19373883 0.25255397 -0.033125423 0.088501684 -0.172072 -0.13571839 0.055644434 0.11355175 -0.19114776 0.21306632 -0.10306391 -0.0021393243 0.12612025 0.059912007 -0.004161243 0.10584377 0.12491778 0.06038017 -0.06886686 -0.0045143208 -0.0387471 -0.07204093 -0.10670984 0.06946333 -0.087440215 -0.1760061 -0.017744483 0.08122245 0.06166924 0.061608084 -0.092704326 -0.044383146 -0.020707596 -0.12175184 0.22830075 0.2811056 -0.05361981 -0.1773138 -0.037129663 -0.065066606 -0.040443208 0.109630644 -0.0060026846 -0.027334422 -0.17181064 0.011020398 -0.08910654 0.051107105 -0.024671312 0.046753734 -0.04564886 -0.23417467 0.10797219 -0.25520664 -0.051090896 -0.16436201 0.14050096 0.23968983 0.08677966 0.08192999 -0.18969555 -0.12100699 -0.14780268 -0.058502223 0.020103589 -0.028141435 -0.048812173 0.12565449 -0.24913487 -0.27795422 0.14862238
idx__5 0.050094794 -0.1070391 -0.094326474 -0.07470263 0.13577807 0.015288714 0.016947923 0.029637713 -0.10615972 -0.051269926 -0.0859116 -0.0900539 -0.1277312 -0.021569353 -0.058931354 0.106146574 0.022492474 -0.15354629 0.13888614 -0.15106814 0.19754185 -0.09613071 0.23194446 -0.16843215 0.23303491 0.113587044 0.16055082 0.08351361 -0.13110232 0.06496739 -0.1085797 0.11714889 -0.19596946 -0.010031577 0.030321488 0.0010714781 0.065112896 0.20881423 0.071355015 -0.16791134 0.0014953382 -0.011419626 0.22372273 -0.20679627 0.06755266 -0.041225415 -0.19081262 0.09427368 0.10886354 -0.029507974 -0.051384114 0.14579254 0.20916636 0.06815461 -0.32734874 -0.16040726 0.2581843 -0.032109845 0.02962692 0.02461814 0.0069241365 -0.043386187 0.10211968 0.06897924 -0.010889621 -0.21207447 0.094222866 0.12485588 -0.16974914 0.042773515 0.037803095 -0.042071216 -0.21715468 -0.15786219 0.10250842 -0.15416808 0.094703406 0.07287046 -0.046969227 0.004428918 0.024903726 -0.08536409 0.075031504 0.049036905 0.045829922 0.2781644 -0.22994201 0.061429266 -0.10546072 0.087390535 -0.08837619 -0.027739512 0.05013835 -0.058258455 0.022229267 -0.06045126 0.11517096 0.09921447 -0.11818217 0.08005465 -0.028821727 0.017660182 -0.0016192251 0.034049533 0.21260229 0.06396996 -0.06043119 0.23384735 -0.0049310154 0.109145865 0.0045671402 -0.023400359 -0.051321734 0.06477591 -0.1351989 -0.07646638 0.11632768 -0.0023586678 0.012787988 0.111426376 -0.06789192 -0.1015678 -0.14773048 0.021493878 -0.031118745 0.032050278 -0.16327715 0.075548746 0.057040766 0.009303422 0.18318623 0.04463601 -0.000994454 -0.010805872 -0.05179215 -0.10589192 0.020003755 0.13200802 -0.09460845 0.04702486 0.05051406 0.12279164 -0.046384532 0.0009517087 -0.013359576 -0.027368376 -0.29711753 0.04542891 -0.032569226 -0.047859907 0.08280087 -0.036453698 -0.013212274 0.1339183 0.052419636 -0.11842788 -0.07622751 -0.20139873 -0.0989575 -0.0553252 -0.13074657 -0.111313105 0.08608397 -0.2652726 -0.024106475 0.10304154 -0.0062538786 -0.10863209 0.24799938 -0.07967322 -0.18078357 0.16170564 0.21597084 -0.098496564 0.22618313 -0.1085314 0.05463484 0.025222376 -0.1930475 0.031155726 -0.058410387 0.07419454 0.23407307 -0.053325456 0.0034887157 -0.087830715 -0.10593287 -0.0894741 0.035618473 0.13175154 -0.045978796 0.029148962 0.09076444 -0.04703411 0.06357016 -0.05988781 0.058922768 -0.105594456 0.10730841 0.110520646 -0.06978824 0.10619261 0.013418045 0.015293535 -0.07706612 0.11315842 -0.10405244 -0.08267402 0.23236863 0.18910275 -0.059902187 -0.13718435 -0.05083828 -0.0057842904 0.004623201 -0.26293722 0.08994112 0.037303403 0.060403176 0.20993318 -0.029217165 -0.23658906 -0.0149433855 -0.10954324 -0.0764285 -0.10111355 0.032707524 0.056638338 -0.17959042 -0.02506077 0.26791728 0.044036444 -0.13433142 -0.1567961 -0.10621006 -0.08736757 -0.260982 0.011068992 0.020371629 -0.20878386 -0.07023688 0.09602808 -0.08809875 -0.14452693 0.07844041 0.055754047 0.020874813 0.14630812 0.049904313 -0.0023865313 0.02737886 0.1391916 -0.08615453 0.16922243 -0.014732015 -0.026161866 -0.058859173 0.29152915 -0.20481479 -0.08169606 0.15970388 -0.12903817 0.03252606 -0.01954822 -0.17939602 -0.034113664 0.05057454 0.07679597 -0.1595571 0.2404261 -0.006245772 -0.0022747747 0.08375142 -0.15250291 0.04900206 0.15403683 -0.036107108 -0.1554826 -0.18330455 -0.09361296 -0.16372441 0.098467685 -0.027134966 -0.012929643 -0.24559607 -0.033569027 0.08198273 0.08207292 0.008627891 -0.1402173 -0.056742657 -0.1094726 0.033600185 0.32815373 0.2368119 -0.13683762 0.09928147 -0.2968188 -0.18892223 -0.036814168
idx__6 0.39989355 -0.45811215 0.1886286 -0.15141441 0.4383538 0.23216632 0.020320356 0.16085504 -0.55689466 -0.024930924 0.19226088 0.13065878 0.18199953 -0.42303616 -0.17351155 -0.16189642 -0.14147961 0.012009896 0.14636242 -0.3878466 -0.15905721 -0.062609024 0.2656731 0.16360077 0.2622795 -0.06724073 0.20575872 -0.1290636 0.033688646 -0.25416493 0.0019863413 -0.04721858 -0.034794025 -0.056481503 0.13814361 0.008749357 0.060807813 0.20605262 0.043792617 -0.18798317 0.009857197 0.023794413 0.09229426 -0.013866756 -0.040619425 0.12000851 0.17421307 -0.0888382 -0.09239267 -0.055053003 0.045265157 0.016856493 -0.050711732 0.11822518 0.23395479 -0.0383748 0.12691677 0.030047664 -0.24115339 0.046420112 0.08019006 -0.2004707 0.032258797 0.12914564 -0.041433934 0.024610594 -0.0123229055 -0.22230048 0.07647009 0.112620376 0.040005267 0.006954705 -0.07005761 -0.11115658 -0.1881761 -0.0003336775 0.21735217 -0.09939197 -0.004564707 -0.13805732 -0.03598576 -0.060678095 0.1581481 -0.107461154 0.17158116 0.097070076 0.05085971 -0.0012135647 -0.040347185 -0.043297067 0.04422099 0.07412675 0.09627963 -0.09760953 -0.05865826 0.0906988 0.054161116 0.08377074 0.071550794 0.051288154 0.08440987 0.12008534 0.042023487 -0.14521345 0.1587612 0.010395583 -0.02164717 0.11388659 0.046203516 0.03641236 -0.18963416 0.083844855 0.06663893 0.08247386 -0.08159308 0.09342432 0.034082603 0.059657115 -0.115453474 -0.0015793858 0.11246246 -0.042514425 0.066804916 0.003839629 0.083064124 -0.0154713355 -0.070837975 -0.0024867272 0.06568147 0.013741247 -0.06604931 0.13082568 0.102044046 0.019788848 -0.010404868 -0.038557757 -0.036484644 -0.12676388 0.09775631 0.07886509 0.14841184 -0.12157583 -0.07856219 0.061851878 0.10694953 0.011926128 0.13375536 0.085799284 0.08971203 -0.011529593 -0.06247869 -0.013172222 0.1561465 0.13372436 0.007120026 0.0060030366 -0.03290213 0.075094335 -0.040441893 0.1448254 -0.014348985 0.0072206417 -0.18881187 0.02174055 -0.109544784 0.008933111 -0.10043392 -0.08938303 0.06522904 0.09904128 -0.12956823 -0.021009972 -0.050242614 0.09215658 0.07783105 -0.09207249 0.093686685 0.046544395 0.0771878 -0.042968936 -0.1868256 -0.014088442 0.16470402 -0.011855924 0.06006356 0.06622601 -0.124001555 -0.061490957 -0.18334466 -0.03815855 0.09062509 0.0028680123 0.23960434 0.058423784 0.0033170818 -0.20798 0.07836466 -0.06432253 -0.017369807 -0.072252855 -0.046764944 -0.08518363 0.24925536 -0.12865216 -0.019462341 0.11689982 0.14226665 0.09424123 0.0033053954 -0.118445 0.013563817 0.09459586 -0.12678355 0.024645474 0.116979614 -0.18590654 0.18063407 -0.011460433 0.13151638 0.03537636 -0.0004906765 -0.0835977 0.11251078 -0.17188439 0.022815367 -0.14317499 0.055960074 0.046398908 0.19621365 0.12724781 0.03414705 -0.123469315 0.16254357 -0.18585771 -0.27843955 0.047216356 0.0024499597 -0.018122232 -0.055935573 -0.14878078 0.046278693 0.059883185 0.027197177 -0.006199353 -0.011102834 0.056934435 -0.013365374 -0.056939706 0.002627185 0.0707589 -0.020142727 -0.090015374 -0.037142057 0.031010397 -0.011698318 0.017492183 -0.02487195 0.0051478376 -0.11438066 0.07940416 0.08847512 -0.19214953 -0.11526812 0.005858069 -0.04179472 0.15235741 -0.07591868 0.0386771 0.13946189 0.15620895 0.048969585 -0.075219534 0.009391971 -0.16931114 -0.035022978 -0.020472812 0.010140053 0.121218964 0.084862836 -0.11091771 -0.06573419 0.21878153 -0.1716458 0.07734705 -0.08205258 0.09175181 0.002302446 0.16423592 -0.05150705 0.0022395966 0.04258048 0.014112972 -0.16589992 0.062349986 -0.10565039 -0.04371051 0.10673468 0.0032851945 -0.23769042 0.16923937
idx__3 0.292056 -0.14858973 0.20535414 -0.22011249 0.23145127 0.12786669 -0.0752374 0.1277877 -0.03580617 0.070238836 0.15661572 -0.04170757 -0.0036610386 -0.0054069925 -0.047622394 -0.014922604 -0.045167334 0.15192865 0.19246766 0.2015195 0.06523425 -0.09466695 0.10879896 -0.16028798 0.06332446 0.16434225 -0.02279252 -0.10948815 0.06547923 -0.26727906 0.049503025 0.08891229 -0.019988002 0.104294375 -0.026486104 0.08948692 0.047022607 0.20416598 -0.013051711 -0.21882176 -0.061987054 -0.039389715 0.25357556 -0.25029236 0.04748996 -0.074391395 -0.08483064 -0.11883714 -0.2037116 0.085982546 -0.07138821 -0.00066436105 0.08668726 0.0049594464 -0.11722995 0.10405831 -0.064291 -0.0043768794 0.027730173 -0.007909759 0.033092607 -0.09911175 0.025373565 -0.09011011 -0.009314852 -0.1641384 0.06363127 0.12779354 0.030931268 0.04770628 0.113216355 -0.009451365 -0.01659439 -0.023084592 -0.08133588 -0.091204405 -0.08725511 0.04642836 0.07592594 -0.0755202 -0.20343553 0.019618643 0.11657873 0.16319124 -0.045266867 0.21124595 -0.16761698 0.05635083 0.033870712 0.17053252 0.011032983 0.0807523 -0.26354894 0.05014079 -0.05255247 0.11793261 0.03967079 0.0442783 -0.15605462 -0.13362062 -0.021863807 0.15125456 0.008513164 -0.05778725 0.107196026 0.13741706 -0.09723958 0.1519069 -0.08055844 -0.11418363 0.21200334 0.10673936 0.14137623 0.095117606 -0.021427479 0.06870312 0.00212458 -0.21276616 0.16476017 -0.0037777722 -0.017859178 0.21158218 0.0102193635 -0.13672104 0.008446102 -0.10303469 0.16365086 0.07074455 0.24181305 -0.0313831 -0.12977915 -0.044920824 0.2013349 -0.08825422 0.17704657 -0.029454831 0.009772477 0.24473923 -0.0070708534 -0.0961437 -0.062241472 -0.05896718 -0.015033022 0.24286029 0.04046823 -0.1539917 -0.015285162 0.2039222 -0.12242612 -0.001207754 0.19482853 -0.09426839 -0.11581462 0.13192293 -0.14376883 -0.3303842 0.16036293 0.019315023 -0.07808936 0.22350767 -0.110180676 -0.17906591 0.07287579 -0.15666875 -0.092973426 -0.044041153 0.09432399 0.1556421 0.02134104 0.0023784402 -0.09330431 0.09097585 -0.04799945 0.07091491 0.31533846 -0.037783276 0.04907004 -0.14751405 -0.13157044 0.17003047 0.20205194 0.04843999 0.050964702 -0.06442155 -0.044901244 -0.12570491 -0.07979679 -0.23199646 -0.0055104927 0.058148492 -0.019968089 0.092726454 0.12293635 0.10933338 0.06156741 -0.2564999 -0.02844173 0.21764353 0.092416406 0.08764764 -0.111461446 0.10399215 0.16101459 -0.03199447 -0.18618265 -0.10326389 0.030660463 0.124382734 -0.038531326 0.08827615 0.0309978 0.0904602 -0.05909346 -0.043068133 0.020928496 -0.0056105726 0.115983635 -0.19109528 0.042810533 0.23953174 -0.07059267 0.12758242 -0.003903153 -0.20349029 -0.0726687 0.15380652 0.09768511 0.13016023 0.012306704 0.14862454 0.09104238 0.054308344 -0.035040796 -0.09755412 0.0114761 -0.1618367 -0.07733857 -0.13748519 -0.0033311448 -0.20356733 -0.04912745 0.18052705 -0.0244296 -0.040305946 0.14144081 0.115779094 -0.18359351 -0.18066704 -0.22626886 0.09972799 -0.025265215 0.0365768 -0.13966697 0.14164509 -0.16578437 -0.005078565 -0.120808825 -0.10996024 -0.17721401 -0.044788267 -0.008796206 -0.14578137 -0.08199346 0.07285371 -0.037039496 -0.08221646 -0.04606974 0.07066703 0.117390946 0.020317648 0.07072372 -0.18239391 -0.0643576 0.079726726 0.07690657 -0.14690594 0.105273455 0.060710706 -0.06400742 -0.06763129 -0.025476119 0.17450613 0.09936901 0.06693028 0.18008491 -0.05284274 0.06169302 0.28762883 0.009006042 -0.11415868 -0.1904602 -0.28645003 0.0018180805 0.06709174 0.06519141 0.22927402 0.042339556 0.0401726 -0.29767215 0.06637705
idx__7 0.19914095 -0.002612279 0.006345075 -0.07514994 0.1416751 -0.087492496 -0.06922995 -0.040644784 -0.36356166 -0.07515871 -0.04333264 0.01767648 0.20941462 0.044290658 -0.16739964 -0.049868427 0.010101462 0.10538219 0.06865209 -0.09826905 -0.018013138 -0.045044757 -0.05205204 -0.04630672 -0.0339347 -0.13707294 0.016528612 0.19566791 0.15512961 -0.11903451 -0.051294494 -0.11629076 0.12876153 0.044383388 -0.06375629 -0.13795446 0.08984583 -0.01297523 0.06769975 -0.030297488 -0.10250722 -0.16665249 0.07215588 -0.18300568 0.2951766 -0.14040984 0.018228175 0.07571014 -0.010400057 0.091884546 -0.20746993 0.1591648 -0.09655534 0.21331525 -0.23300649 0.0041255765 0.06339705 0.04427896 0.20562951 -0.012968358 -0.1737206 -0.13138546 0.16931407 0.124024466 -0.018616822 -0.14991303 0.07949963 -0.016666545 0.11661192 0.01911761 0.21448292 0.0055790083 -0.16808003 0.24926575 -0.08643006 -0.054216955 -0.030057447 -0.047854096 -0.044711303 -0.1909151 -0.052750684 0.0032240073 -0.050803952 -0.07921636 0.19135374 0.009388326 0.15368593 0.025999077 0.005005641 -0.27604154 -0.17054501 -0.2176346 -0.015413967 0.058439746 -0.062285677 0.09569939 0.15033293 -0.08605114 0.019860806 0.022037728 -0.13936703 0.047647957 -0.13767046 0.035165254 0.388347 -0.08094132 -0.008661218 0.09214111 0.032147106 0.10720839 -0.110365614 -0.080841936 0.013632111 0.20829082 0.07636852 -0.17871591 -0.12590122 0.055822365 -0.17083693 -0.0608588 0.08060662 -0.1467232 0.1739628 0.14426395 -0.079412825 0.20605765 0.21951312 0.101103306 -0.1556292 0.13971427 0.0912211 -0.05898598 0.2039919 0.06750366 -0.006142786 -0.18686599 -0.03413605 0.25927532 -0.1951225 0.1092078 0.07843917 0.05450469 -0.10454369 0.07930412 -0.101212315 -0.11733878 -0.007957546 0.16360049 0.118479766 -0.12254487 0.0995024 0.046336573 -0.027057817 0.031763 -0.06784248 -0.2679418 0.13349418 -0.08861097 0.010551873 0.23284176 -0.14629138 -0.0632787 0.12503682 -0.18196037 0.010094072 -0.10284914 0.1472818 0.111658186 0.19733363 0.046352793 -0.07276744 -0.02744801 0.06048019 -0.11860062 0.23108476 -0.13432667 0.19785891 0.100478955 -0.03425677 0.07304087 -0.12602575 -0.058477912 0.20818421 0.09974663 -0.08530557 0.04480152 -0.24328281 0.004791482 -0.25854972 0.025994616 0.015678143 -0.044235185 0.07265701 -0.050011255 0.19467163 0.017852578 -0.12707038 -0.029727245 0.0027500852 -0.04705168 -0.07531941 -0.07549758 -0.022918472 0.12804487 -0.011041504 -0.12201588 0.010739519 0.035977583 0.12821552 -0.057409327 -0.0105675915 -0.10178932 0.12386456 -0.099795535 0.031506523 -0.040628288 0.10534948 -0.009667965 0.039803904 0.21287142 0.22072597 0.1335292 0.17284207 -0.025613658 -0.04877055 0.090228155 0.036122125 0.05257302 -0.002691419 -0.013318989 -0.069513075 -0.0019033706 -0.05597152 -0.0214104 -0.17350222 -0.10057048 0.098894775 -0.037378877 0.18349375 0.0012930979 -0.15738545 0.18504056 0.008380303 0.19022642 0.044005066 -0.18193349 0.0086483965 0.10616344 -0.018654848 -0.0014773746 0.04356772 0.19908467 0.08839188 0.02582864 0.01522036 -0.06388595 -0.10259242 0.2002075 -0.015604591 -0.097688526 0.19126333 -0.08962963 -0.03987373 0.07573845 -0.08212188 0.09910747 0.015004941 0.02666328 -0.044118136 0.038514804 0.0076107327 -0.08877909 0.15415938 0.016827486 -0.06952004 -0.042217 0.007711236 0.005596535 0.22450683 -0.020751255 0.1821553 0.15899143 0.09026388 -0.00016540896 0.0538962 -0.008395826 0.09797835 0.050969835 -0.025442243 -0.024298402 -0.123138934 -0.1707587 -0.024200778 0.09471904 -0.015062076 0.05687995 0.07062627 -0.11435574 -0.022883005 0.16008042
idx__2 0.2039343 -0.2597908 0.04688337 -0.14070864 0.29846933 0.083451174 -0.17202175 -0.026807545 -0.112818 -0.14337766 -0.0024960828 0.19484973 0.15547973 -0.22439995 0.08536937 -0.0896533 0.046697073 -0.12242679 -0.07571688 -0.10042637 0.18382607 0.06914409 0.10426699 -0.06484625 0.13871197 0.006224197 0.32639608 -0.14782882 0.079934865 -0.15441461 -0.14079864 0.26166692 -0.12349578 0.05179726 0.01863603 -0.10813294 0.16789165 0.29597878 0.00022849784 -0.080975704 0.1280592 0.11558649 0.11053022 -0.15189812 0.13583986 0.086461455 0.017707061 -0.20588219 0.15698151 0.032406017 -0.15570858 0.1625449 0.0055347816 0.12401965 -0.121936485 -0.086226486 0.05192783 0.08044476 0.14857459 0.03732811 -0.16541015 0.028700836 -0.04223027 0.035392087 -0.10825204 -0.028807078 0.14486688 0.09803572 0.16437177 -0.14942273 -0.007539028 -0.050265823 -0.045339033 0.11181643 -0.06868232 0.0050579263 0.070976555 -0.15466549 0.21477753 -0.048954263 -0.11605094 0.046763577 -0.070329204 -0.15979846 0.18119413 0.19293009 0.058337163 0.010005021 -0.00361657 -0.100584 -0.124777205 -0.06664683 0.09927725 -0.099777706 0.14439915 -0.066075504 0.095291585 0.19960785 -0.21428877 -0.049050216 0.14563043 0.09369582 -0.16683926 -0.17527653 0.40684795 -0.060666144 0.09529838 0.03292991 0.06914589 0.14950517 -0.025154896 0.112903535 0.0079945 0.038341943 -0.0129699595 -0.15456173 0.012714348 0.121025 -0.1194371 0.041418087 0.007960358 0.0070701395 0.09814916 -0.049552746 0.07757594 0.07453 -0.04377476 0.104659736 0.020460764 -0.019773295 0.09856705 0.02706474 0.14967604 0.03984213 -0.002773055 -0.027105542 0.08992384 -0.014034146 -0.04878381 -0.12348555 -0.0136643285 -0.0056621497 0.022966389 -0.0247092 0.14623551 -0.09612839 -0.15207525 -0.033164356 -0.5061422 -0.13244304 0.17194049 0.040521715 0.0840674 0.06828917 0.07488281 -0.17081055 0.120817535 -0.06276557 0.069934785 -0.061128292 -0.18827803 -0.08231715 0.14299242 0.14548837 -0.1526066 -0.012480387 -0.18538572 0.0133524295 0.18491824 -0.14621738 -0.018911773 0.15873806 0.0692569 0.085174195 0.10014569 -0.0044009574 0.00238011 0.02442785 0.009740453 -0.017083194 0.067556396 -0.09529436 -0.06460921 0.122254655 0.010899579 -0.044666212 -0.039004274 -0.024483463 0.056297053 -0.082160495 -0.03718155 -0.0817635 -0.027689476 0.06321308 -0.06304669 0.051883496 0.058754895 0.037834365 -0.14737195 0.09549973 -0.08133605 0.059236504 0.022625886 0.0037664918 -0.07827619 -0.058993004 0.0710965 0.014465523 0.021276837 -0.08901637 -0.07400456 0.16763724 0.08504077 -0.16993448 0.091709934 0.00972189 0.11165375 0.013876799 -0.06796682 0.19928738 -0.09503841 -0.19309513 0.10968105 -0.19718008 -0.044917226 -0.14341877 0.13291077 -0.04746267 -0.041385613 0.008711976 0.029556282 -0.2188743 0.040543843 -0.047419574 -0.013535041 0.20466134 -0.017925013 -0.061869957 0.21370971 -0.1507192 -0.10538347 -0.033438154 0.09343421 0.16343817 -0.05704804 -0.0841074 -0.07236778 -0.10091481 0.13657492 0.022598524 0.11464839 0.053649675 0.005360064 -0.08602707 -0.08275766 -0.08167622 -0.0069979155 0.04194448 -0.054244775 0.095522545 0.00018434701 -0.023561807 0.079103895 0.13679749 0.13105601 -0.1073884 -0.16423328 -0.087220095 -0.0010472042 0.10606196 0.12931284 0.066171914 -0.043914568 -0.14969672 0.066331 0.20602892 0.09544306 -0.02804965 -0.114518344 -0.21566072 0.004305509 0.030300159 0.1249742 -0.04222391 -0.06524629 0.057733234 -0.06083634 0.067903765 -0.06763834 -0.22330134 0.06664605 -0.067457475 0.04468034 -0.06349914 0.04691434 0.028405188 0.07137634 -0.10062162 0.022767939 -0.10247913
tn__9 0.077850394 0.07162023 -0.055925023 -0.10429218 0.052799862 -0.027928686 0.060768116 -0.0020560028 0.030774008 -0.04275084 0.0053586964 0.13203596 -0.16237259 0.03267176 0.005766299 -0.016720518 0.029109916 0.066489846 0.030874271 -0.09449982 -0.004086003 0.09254 0.03965289 0.041747764 0.11468649 -0.09014173 0.07934894 0.0069121094 -0.10203508 -0.1364724 0.028628185 0.050966434 0.010597674 0.0141461445 0.06848317 -0.07415412 0.033311293 0.09239703 -0.11228022 -0.17148358 0.1293043 0.0048035104 0.34218988 -0.15840553 0.061671473 -0.038469315 -0.14185318 -0.18937613 0.0029682715 -0.037735164 0.017521717 0.123771936 0.04206308 0.1146413 -0.0026044575 0.011137801 0.17803626 0.15685533 0.1311838 0.16770256 -0.1365948 -0.17327131 -0.0032314826 0.025854947 0.06674315 0.031693406 0.014001877 0.006232165 0.17412773 -0.14602539 -0.024326378 -0.09522283 0.044603053 0.17170191 0.057373766 -0.12196354 0.057424612 -5.2619842e-05 0.101342306 -0.10322039 -0.04548116 -0.12362377 0.07639683 -0.19583623 0.20526768 0.16441333 -0.021063536 -0.07120167 -0.24276273 -0.2146792 -0.07731331 -0.018320328 0.037549306 0.19828121 -0.04834318 0.18346804 0.16061705 0.028474571 0.109063834 -0.11592039 -0.04435208 0.07349461 -0.030510476 -0.03919298 0.083520725 0.00639029 -0.07495027 -0.02409409 0.01763415 0.14223257 0.029245816 0.21061544 -0.0247001 0.033462618 -0.056440465 -0.12892526 -0.032330904 -0.019947946 -0.09308038 0.06946608 0.007003396 -0.03435733 0.103170246 0.044765 -0.043797027 -0.086603716 0.10730972 0.02581595 0.029408459 0.13051438 0.0019572694 -0.05245508 0.18195328 0.07611081 -0.08794935 -0.21827371 0.06110511 0.11848993 -0.09126602 -0.05274627 -0.05371799 -0.031297993 -0.05893138 0.17390712 0.07954816 -0.15157843 0.09972977 0.08542509 -0.05936485 -0.1424665 0.20451403 -0.14371693 -0.01912521 0.04612661 -0.08337593 -0.042170513 -0.008153555 0.06306729 -0.0071341833 0.058192845 -0.16990344 -0.06155387 0.06641752 -0.15084146 -0.095147565 -0.09553328 -0.16442035 -0.026779918 0.13197371 0.088260196 -0.2770282 0.05027373 -0.106462136 -0.19204964 0.06451927 -0.18350299 -0.13107985 0.10070669 0.10043617 0.05287587 0.16695078 -0.013067677 0.02232762 0.11599357 -0.115369365 -0.10419901 0.11848558 0.048316516 -0.051066533 0.03325478 -0.042984884 -0.013046568 0.049086504 0.029766934 0.066091485 -0.057826612 0.2039969 0.0052179545 0.021183416 0.07765722 0.04153854 -0.113034725 -0.0894921 -0.080807626 -0.14457348 0.08329244 -0.0036384736 0.072430775 0.023249514 0.019779675 -0.027747866 0.07447146 -0.0026808989 0.07765864 0.19522892 0.0330846 0.07060973 -0.14233501 0.10713209 0.27860507 0.121938504 0.10524776 0.034044497 -0.07162968 -0.028951654 0.0032545873 0.009707388 -0.08355981 0.08109435 -0.015476978 0.13146983 0.17214848 0.2563758 -0.05760583 -0.21158542 -0.104142234 -0.030022679 0.09529627 -0.06946321 -0.03156825 0.08526525 0.21264711 -0.05139278 0.14906831 0.06047438 -0.12692136 -0.0107359085 -0.1931312 -0.07163671 -0.0046748174 0.051506452 -0.13521132 0.045456532 -0.0047112205 0.047590997 -0.054135554 -0.1454031 -0.06896773 -0.22281656 0.01910978 -0.030188091 -0.20167151 -0.068446144 0.02975848 0.1973066 0.056490287 -0.094358295 0.026664859 -0.025232779 0.026117582 -0.009707887 0.08023374 -0.0639746 0.00027103047 -0.16591795 0.012896023 -0.0836417 0.048101425 0.036451913 -0.12710752 -0.12935036 -0.0064673047 -0.1857165 -0.079816304 -0.10763842 -0.004229288 0.056112804 0.15863095 -0.082426146 -0.08417027 -0.0112138875 -0.095863484 0.07316782 0.187516 -0.08651676 -0.1280653 -0.043092 -0.36113647 -0.11541501 0.037675828
tt__cinematographer 0.48877352 -0.14331754 0.090759054 -0.1372134 0.26500413 0.17522806 -0.15006882 0.083027855 -0.078141235 -0.06910132 -0.015909456 -0.0233979 0.05226076 0.060342655 0.064105265 -0.16123965 -0.0591715 0.07907607 -0.14818674 -0.08701276 0.051452048 0.12485262 0.2796577 -0.023263495 0.07678341 -0.07520415 0.06525589 -0.058452383 0.039364953 0.15957125 -0.1489972 0.13709748 0.045512885 -0.07401572 0.23408183 -0.05543488 0.038263757 0.14778961 0.18738793 0.029790865 -0.012347961 0.04813571 -0.088317595 0.013706142 0.12696958 -0.00014570775 -0.046867806 -0.14243676 -0.07864748 -0.042750254 -0.11438837 -0.21090908 -0.037107494 -0.09938232 0.0686154 0.084133916 -0.11130753 -0.0080152545 -0.03995191 0.011850433 -0.09592914 0.029095998 -0.11126903 -0.10363096 0.10332803 -0.006229605 -0.012250624 0.12089334 -0.16826832 -0.095921084 -0.0051869354 -0.0922501 -0.049947448 0.13908646 0.118276685 0.17120086 0.021954844 0.05175036 -0.11023224 -0.15076262 -0.022997094 0.037677914 0.011409642 0.020327708 0.1652663 0.14904611 -0.13947514 -0.03339487 -0.05235223 -0.10603506 -0.13943176 -0.11923997 0.024980532 0.0058731274 0.08890753 0.039596025 0.16435589 -0.1124535 -0.14416005 -0.13461255 0.011393234 -0.057115395 -0.18820766 -0.08655306 -0.027246436 0.0092206625 0.025872018 0.01457066 -0.06593696 0.20467512 0.06767228 -0.0450805 0.14624695 0.034136374 0.03519499 -0.20924687 -0.06788777 -0.09878613 0.097225584 0.013472326 -0.10467974 -0.06489565 -0.07045439 0.06766522 -0.02703056 0.0059573813 -0.016338093 0.10412601 0.072986014 0.08945938 -0.0800456 0.077750556 -0.15362507 0.012655842 -0.08719909 0.011256656 -0.10051533 0.16400273 0.024074852 -0.029783824 0.053825676 0.0731459 -0.051472235 0.1468301 0.17453046 -0.06058093 -0.14062533 0.024664972 0.19975421 0.11154781 0.20348434 -0.1660835 0.03323995 0.03555645 -0.07925401 -0.12088179 0.07446082 0.008607599 -0.03343873 0.26362285 -0.10308255 -0.10303364 0.14240341 -0.25407624 0.033585932 -0.07539021 0.04829221 0.05139662 0.08126534 -0.00061799795 -0.093820624 -0.005770044 -0.08601925 0.053402983 0.065427996 0.038406115 0.10624898 0.06670376 -0.22479154 0.039108396 0.15402003 0.07080669 0.08406162 0.07126176 -0.09016806 -0.09046213 -0.117809 0.023566147 -0.19317582 0.07716917 0.099105574 -0.09139124 -0.029834071 0.1305855 0.18007778 0.16455446 0.01762097 -0.04884802 0.025845585 -0.04572098 -0.13910455 -0.14785607 -0.014621918 0.16937745 -0.08096041 -0.13585612 -0.17155096 -0.065052964 0.059412196 -0.104260646 -0.036439344 -0.06545277 -0.12494073 -0.082553275 0.08896119 -0.035329018 0.03915454 -0.060227435 0.008778556 0.22226949 0.060974654 -0.10928381 0.2006786 0.08653335 -0.027303685 0.12105572 -0.036398005 0.0068171863 -0.11137188 0.12987225 0.2786191 0.06636949 -0.023722164 -0.008467241 -0.22347505 0.10678141 0.011093348 -0.03180087 0.22815065 -0.05950956 -0.114864185 -0.06403774 0.079116814 -0.19701709 -0.02524933 0.044035114 -0.079780854 -0.004768231 0.09818505 -0.09132475 -0.029837286 0.06472409 -0.06940887 0.09042135 -0.0068719825 -0.036983006 0.023851283 0.046098284 -0.05835669 0.04914442 0.07471279 -0.11915731 -0.030981088 -0.16518843 -0.0025922523 -0.21493988 -0.0709652 0.023791892 -0.04458676 0.07324388 -0.057223223 0.065687716 -0.07829378 -0.07347062 0.116211735 0.1617136 -0.10315739 -0.110438526 -0.13365318 0.07476912 -0.23626807 0.0031168319 -0.15184394 0.13430922 0.034741875 0.12975499 0.06248308 -0.016023818 -0.070584185 0.05260698 -0.09611197 -0.2819302 -0.07230681 0.1437128 0.1845763 -0.043043315 0.0042885714 -0.098830394 -0.09468834 0.026429858
tn__43725157 0.12264265 0.07624042 0.04404514 -0.052503496 0.0752816 0.123059876 -0.10758081 -0.0108684385 -0.064429566 -0.009938522 0.022479605 0.21181941 0.047405403 -0.3012224 -0.16254878 -0.09142796 -0.1810876 0.023893565 -0.050456967 -0.14824706 -0.008254936 0.067850344 0.11441077 -0.07488477 0.19237506 -0.08115532 0.03461548 -0.03345509 -0.06644254 0.074518204 -0.07983385 0.2095558 0.030142626 -0.059041563 0.13173287 -0.0013563911 0.068743296 0.118259475 0.117728665 0.07806872 -0.022660984 0.019806782 -0.14156434 -0.1094738 0.090859115 0.050635934 -0.19441977 -0.14632009 -0.10797099 -0.022001969 -0.12457444 -0.08852114 -0.05738673 0.06380982 0.04969068 0.093079284 0.009888682 0.009101284 -0.12020117 -0.0034297337 -0.039198425 -0.025701359 -0.07921281 -0.07019405 0.0706474 -0.16585118 -0.15104555 0.028598443 -0.108684115 -0.13503131 0.03413367 -0.015328829 -0.13343623 0.18492576 0.06530434 -0.0047322004 0.10518768 0.19934402 -0.061381876 -0.08465904 0.08589634 0.030597763 -0.00016148039 -0.10064029 0.14815831 0.09913006 -0.21003509 0.0066853566 0.12305044 -0.13789688 -0.0049204607 -0.12923062 -0.102352604 -0.08318692 0.0599038 -0.019429456 0.07105538 -0.09772569 -0.23332305 -0.20615886 -0.0524057 0.016300408 -0.14385325 -0.034523636 0.05293167 0.09289279 0.090128526 -0.024517491 -0.031303126 0.18319695 0.0722993 -0.0031235735 0.15238355 0.04067351 0.006136999 -0.20896746 0.013409446 -0.019376773 0.04713176 -0.013168124 -0.021122256 -0.07084493 -0.06148478 0.03928634 -0.11894155 0.05864858 0.066464484 0.011793347 0.037672527 0.10755026 -0.10025348 0.009818846 -0.036540303 -0.07389023 -0.025489932 -0.027469384 -0.07590088 0.16570002 0.09884007 0.059222516 -0.01235746 -0.063590504 0.11285286 0.009283257 0.037909996 -0.1059556 -0.070738755 0.13408431 0.21657994 0.10117832 0.095458254 -0.12208521 -0.01816463 -0.09883861 0.05507766 -0.04684808 0.08262674 -0.047652174 0.027385136 0.22235882 -0.096604556 0.10222345 0.146186 -0.17491733 0.12175696 -0.08875088 -0.008901053 -0.02998468 0.05071022 -0.112105794 -0.035666965 0.049362175 -0.1396044 0.012109186 0.09656189 0.050888177 0.14770176 0.016749203 -0.24946849 -0.06333355 -0.052524697 0.019374147 -0.022090238 0.058484133 -0.061256107 0.047533322 0.026089046 -0.03449558 -0.010716963 0.07618888 -0.04672776 0.023035094 -0.11156787 0.04618826 0.1379077 0.27402323 -0.005363845 -0.07829198 -0.008576919 -0.02737298 -0.16122733 -0.29664788 0.058831844 0.10831428 -0.0491998 -0.09085775 -0.091185145 -0.028871095 -0.030219119 -0.20686637 -0.07664002 -0.05503597 -0.057431094 -0.0436301 0.05048216 -0.108168684 -0.060565475 -0.0562886 0.10861554 0.13985556 0.058214564 0.02639966 0.07564784 0.009316338 -0.058033857 -0.041375577 0.020495325 -0.03214866 -0.055518623 -0.02341766 0.21470463 0.14145687 0.02747668 -0.057128035 -0.28129637 0.022541694 -0.05649426 -0.033590615 0.35201782 -0.16679208 -0.147021 0.1296106 0.06662517 0.008318624 0.034039468 0.14248988 0.06200354 0.036884487 0.109842226 -0.027187705 -0.0006543321 0.094344884 -0.2193136 0.12818038 -0.022376386 -0.1310665 -0.12860166 0.016068537 -0.1662758 0.036351386 0.09741299 -0.25504404 -0.08360484 -0.11510369 0.12690526 -0.068690576 -0.044029575 0.05750723 -0.0048293956 0.22644834 0.023268383 -0.036240194 -0.108675644 -0.18375006 0.15654354 0.0957575 0.012201064 -0.09565374 0.0034272661 0.083362386 -0.42348075 -0.012130764 -0.13103582 -0.050024908 0.07466104 0.123576514 0.22190097 0.13351992 -0.033757716 -0.07519789 -0.033917237 -0.26686627 -0.028308252 0.12369737 0.23934075 -0.06273243 -0.017775191 -0.12127166 -0.11364678 -0.055507664
tt__editor 0.36594424 -0.21214947 0.023523929 -0.1404099 0.13455693 0.084210254 -0.059932657 0.08334739 0.018412257 -0.102530085 -0.057459462 0.081109 0.013293697 0.055526633 0.055591796 -0.2000161 0.079798274 -0.024054846 -0.024077417 -0.23332445 0.072002396 0.018673396 0.26025638 0.0032462352 0.10869436 -0.13445625 0.14016089 0.08493722 -0.03343767 -0.08143962 -0.018672837 -0.042028435 0.056439966 0.10507839 0.001803047 -0.11188692 0.015658166 0.056909475 -0.12057907 -0.020479226 0.102487326 0.0074738525 0.15348724 -0.012731543 0.1560394 -0.008891651 -0.03283362 -0.12259441 0.031531908 -0.06010545 0.1333288 -0.020835886 0.030098882 -0.08738104 0.05977659 -0.017210547 -0.018060267 0.0760589 0.17925438 0.08885995 -0.10064553 -0.022182088 -0.11376907 0.066638805 0.04940137 0.06895485 -0.04289159 0.06692082 0.08892464 -0.15457775 -0.034854136 -0.026523165 0.06394913 0.11876513 0.04775218 0.06631952 0.050391614 0.061597545 0.031598363 -0.070348814 0.050623726 -0.01269491 0.071938746 -0.037166514 0.13236159 0.11640092 0.02059247 -0.09835717 -0.121267736 -0.11524731 -0.10712297 -0.072786376 -0.008806159 0.1421836 -0.0033843876 0.10628566 0.17329963 -0.05035821 0.025026632 -0.067403466 -0.068371855 -0.049748145 -0.027360093 -0.0028427055 -0.009047307 -0.1035221 -0.09578815 -0.0051722364 -0.012901975 0.14596334 0.031854227 0.13558495 0.015929278 0.11017415 -0.091375284 -0.21582483 -0.06768724 -0.0391026 0.016828096 -0.024620775 0.0053193425 -0.020098176 0.08054813 0.07095431 -0.043461934 -0.1413373 0.05005254 0.06930662 0.05650079 0.047932006 -0.020273348 -0.028654104 0.0543301 0.041086122 -0.057313215 -0.13891877 0.077106975 0.13692337 -0.08574948 -0.14283894 -0.056778327 0.05014615 -0.053220667 0.13500208 0.17096533 -0.10630021 0.059595246 0.04428959 -0.088762164 -0.06870511 0.1269308 -0.1949023 0.08108372 0.044968262 -0.16041936 -0.03446381 0.015655505 0.03158628 -0.11075374 0.10872913 -0.27160043 -0.1301392 0.26310748 -0.17396133 -0.055470727 -0.075327255 -0.12936422 -0.03159744 0.054619428 0.1331776 -0.1832865 0.09042066 -0.02632796 -0.1297421 0.022202333 -0.049910154 -0.11880169 0.17396419 0.06429508 0.022529455 0.23534457 -0.016071022 0.04027829 0.15785615 -0.021233393 -0.13705483 -0.023770817 0.15858352 -0.15618955 0.06838551 -0.0662878 -0.19645113 0.10503265 0.1739521 0.09782749 -0.16832712 0.27774042 -0.01067622 0.011468772 0.051462136 0.07745275 -0.011203179 -0.1450597 -0.0028009785 -0.118650764 0.033359937 -0.06071087 0.042276062 0.09499588 0.0010261105 -0.07573899 -0.08224308 -0.090818316 0.039810166 0.18342127 0.10915901 0.09501448 -0.097850576 0.1001315 0.20256059 0.101059206 0.0490715 -0.002061658 -0.020377653 -0.008919339 0.019955792 -0.015685238 -0.057781324 -0.047473583 -0.013673137 0.15346764 0.10077951 0.13932659 -0.061855208 -0.22964837 -0.1576018 0.061570436 0.08510363 -0.11958738 -0.14477572 0.11514262 0.1675345 -0.048567794 0.13034229 0.10465389 -0.15927258 -0.0010859496 -0.21079946 0.04227504 0.08821877 0.081811205 -0.14681916 0.050037947 0.047238864 0.09088873 -0.12853532 -0.09520907 0.027659673 -0.28857005 0.028546665 -0.00049506954 -0.20753188 -0.058175106 -0.042866163 0.025376879 0.07849428 -0.036482178 0.049267296 0.07432809 0.0106989825 -0.07263046 0.012030009 -0.0073842374 -0.06506006 -0.042905815 0.04597863 0.031621724 -0.04254536 -0.014296445 0.025869686 -0.15177509 0.09944466 -0.12386322 -0.081088915 -0.06431833 0.09063089 -0.04350422 0.08475807 -0.054634396 -0.0828998 0.059990022 -0.09089512 0.11559644 0.10916821 0.038582623 -0.12517165 -0.01501337 -0.2984213 -0.056389373 0.047516618
tn__43725163 0.061582744 -0.12454975 -0.049223978 -0.020993143 -0.0028616064 -0.057230283 0.12665947 0.03387844 -0.16107851 -0.02593517 -0.060343437 0.18271478 0.13497466 -0.44739738 -0.15251179 -0.0043530394 -0.14426145 -0.093387656 0.081202716 -0.2689055 -0.008846038 -0.13310137 0.1404706 -0.039253633 0.111620784 -0.025855392 0.0001621265 -0.02850756 -0.06490522 -0.13506828 0.11583099 0.15833429 -0.05148408 -0.03028141 -0.046304036 -0.03589159 0.19597244 0.008558453 -0.11661011 -0.0009970575 -0.09916352 -0.11878407 0.10776832 -0.18911038 0.11332018 0.18610632 0.116686404 0.10297386 -0.12914564 0.020637522 -0.027326135 0.12114556 0.023366846 0.03698211 0.035523556 -0.019818502 0.04730995 -0.0229036 -0.041752167 0.020704193 -0.04627009 -0.18404043 0.071034946 -0.02187331 -0.02559986 -0.24982324 -0.23800564 -0.06252095 -0.124227524 0.0073303767 0.11864616 0.001141057 -0.059999906 0.03954733 0.078268856 -0.08618581 0.116101354 0.018378891 -0.039183207 -0.050388083 0.15241839 0.088939466 -0.009459696 -0.0691505 -0.09954838 0.11926557 -0.13513672 -0.04002321 0.0060298927 -0.08107813 -0.008767745 -0.14644907 0.006349998 0.07516156 0.088128306 -0.0061192773 0.013475576 0.019662846 -0.08787136 -0.1789782 -0.17937526 0.08761764 0.015742999 0.018472996 0.092636734 0.05716905 0.03287651 0.030429913 0.09350623 0.042970542 -0.0022600957 0.21291299 0.10045367 0.26356217 -0.0054357755 -0.1564186 0.011552532 0.073056854 -0.12009122 0.033247843 0.118716866 -0.12947105 0.21649769 -0.093442306 -0.17346992 0.1632086 -0.024037525 0.008315722 -0.08884608 -0.06862962 0.0049292166 0.017720124 0.017210249 -0.1328366 0.009102541 -0.10825541 0.049479898 0.116682716 -0.050239306 -0.0033403372 -0.019250136 -0.011532263 0.102100484 0.15464541 0.1325771 -0.17785835 -0.1397378 0.031128326 -0.05977012 0.119587 0.0011730215 0.1065308 -0.029451218 -0.021390902 -0.14653887 0.014847421 0.07304611 -0.08894671 0.054218087 0.11521504 -0.03493173 0.24445878 0.1924447 -0.16476399 0.018616818 0.052378826 -0.052667174 -0.08276209 -0.016674545 -0.10801146 -0.0075618336 0.13132149 0.0050017904 0.026397426 0.058125373 -0.013100647 0.069886394 -0.06921324 -0.19393982 -0.119218 -0.039977886 0.13996953 -0.039722383 -0.016764296 0.053299073 -0.015831072 -0.004725773 -0.025081858 0.0052250153 -0.039247867 -0.02888684 -0.071474545 -0.0021326684 0.07370509 0.20304456 -0.037062354 0.093408555 -0.006957843 -0.061910547 0.12504941 -0.10763043 -0.13744313 0.042087644 -0.020955866 -0.03247483 -0.032166082 0.12441067 0.03489186 -0.01528537 -0.047398996 -0.082470514 -0.14140484 0.071979105 -0.0018147856 -0.11623086 -0.16747867 -0.0146651985 -0.020573633 0.13953073 -0.20181592 0.007784625 0.13398221 -0.11544898 0.013876749 -0.0072412444 -0.09598469 0.040236946 -0.016666895 0.099523455 -0.13295612 -0.10545121 0.008542805 0.008401132 -0.15340236 -0.012965328 -0.093568385 -0.06476492 -0.032881144 0.036571108 -0.12014225 -0.00093051343 0.14651081 0.076983586 0.18348475 0.2098873 0.11720337 0.04907841 -0.03717784 0.09425492 0.103176475 0.13058914 -0.19087788 -0.1714628 0.06737561 -0.036178183 -0.11585985 -0.08761924 0.10367734 -0.020438448 0.022679552 0.08531431 -0.03945073 -0.17235276 -0.08732149 -0.05300664 0.15044653 0.096673824 0.06060665 0.15890054 0.18402833 -0.05458316 -0.12027091 0.009081773 -0.22106434 0.20764394 -0.12597297 0.17120577 -0.086318515 0.024610164 0.15176931 -0.32039014 0.08401797 0.06488688 -0.20159724 0.036493465 0.08858291 0.04477469 0.13408908 0.102218136 -0.13125966 0.0014181822 -0.012190037 -0.059002448 0.1338753 0.22254305 -0.060265567 0.04227946 -0.06570918 -0.069532044 -0.11381915
tn__2 0.08575787 0.08119934 -0.06951439 -0.14217824 -0.04779145 0.005873815 -0.021938264 0.0031635594 0.09831045 -0.012924839 0.06652345 0.04596773 0.043058924 -0.109811954 -0.019065844 0.21612623 -0.036591407 0.058072984 -0.03075095 -0.042254135 0.052235465 0.16827294 0.062502764 0.055828758 0.07468991 0.10144244 0.13628668 -0.12327366 -0.078177646 -0.016233204 0.014409327 0.097361684 -0.04655082 -0.07160427 0.031204412 -0.05053806 -0.019889807 0.13319486 0.09793457 0.009972998 0.01865646 -0.08818542 0.08473401 -0.18224347 -0.06738679 0.018786594 -0.04656384 0.029508598 -0.020355243 0.074897975 -0.119391546 0.11510716 -0.056815784 0.18931668 -0.13510308 0.15399651 0.04829369 0.019095609 -0.006276201 0.091093354 -0.056755304 -0.12550932 0.068486765 0.029309237 -0.079791516 -0.03512014 0.09994928 -0.09355505 0.033190466 -0.13439262 -0.06900694 -0.07205413 0.019323569 0.04827924 -0.06818603 -0.12384079 -0.07498202 -0.00090776733 0.002560589 -0.1795389 -0.12565437 -0.06030378 0.11627799 -0.052923657 0.09102148 0.052752532 0.026068518 -0.014036602 -0.15606433 -0.14273241 -0.11643831 -0.11295261 0.13322306 0.21980567 -0.013842971 0.07544802 0.12746896 0.15894008 -0.035191126 -0.019505164 -0.09767999 0.14890745 -0.120236956 -0.1281854 0.20721962 0.14951992 -0.0039722165 0.12020529 0.03557727 0.06724742 -0.082234666 0.117516235 0.11905116 0.06744892 0.116319396 -0.05789071 0.07655205 0.009645855 -0.17702828 0.08106224 -0.017394109 -0.11499706 -0.008822013 -0.06099021 -0.10867436 0.18519756 0.05970945 0.0719298 0.05528455 0.18819875 -0.08067103 0.15892912 0.171886 0.17778802 -0.06805679 -0.11196054 -0.060744457 0.10092805 0.10522634 -0.062168133 -0.04276296 0.05702173 0.008005347 0.2600851 0.027026506 -0.0864457 -0.13001142 0.014169939 0.00038281846 -0.04145282 0.11964359 0.015229184 -0.005992944 0.08816245 0.0849172 -0.17076658 -0.02326355 0.051766343 0.17834684 0.08313439 -0.10465303 0.0741043 -0.023906909 -0.20850945 -0.016603747 -0.116754666 0.05945062 0.0141462 0.2820413 0.00081244175 -0.20241109 -0.076865606 -0.006850553 -0.018240757 0.13776308 -0.16777909 -0.06600237 -0.12742022 -0.11099759 0.06952863 -0.029196674 -0.13454634 0.07873449 0.049533483 -0.086869076 -0.18222086 0.0132688405 -0.004218125 -0.097462066 -0.010274951 0.013350535 -0.020962074 0.10538606 0.0148660345 0.11166914 0.09278192 0.03672263 -0.05444701 -0.0884714 0.011155154 -0.049912527 -0.024433056 0.18899049 -0.14711124 -0.12096812 -0.03173337 0.10738435 -0.018673282 -0.07612225 -0.005429654 0.075577654 0.12661 0.053398315 0.017922027 0.15406813 -0.15711291 -0.010318288 -0.025222884 -0.060599696 -0.029226584 0.06709746 0.046852708 0.16796252 -0.030161183 0.0006219577 -0.040342487 0.061297428 -0.046193045 -0.043576516 -0.089642875 0.016621262 -0.020340422 0.015849832 -0.09416823 0.05216023 0.04781232 -0.020038405 -0.12427351 0.101764455 -0.06664701 0.07476289 0.10094664 0.09996674 0.01133637 0.10088186 0.025340166 0.002751306 -0.057077013 -0.06906754 -0.018869765 -0.03703987 -0.06510962 0.039155673 0.01313501 -0.13080244 -0.0057199653 0.0034191797 0.001350458 -0.15731698 -0.03252467 -0.0076864436 -0.06669507 -0.047608096 0.13712336 0.20703766 -0.040970836 -0.12625568 -0.04450835 -0.07552465 0.002947106 0.112052895 0.06784237 -0.0943202 -0.1302041 -0.06373289 -0.04072955 0.08436113 0.024767393 0.017197942 -0.09293869 -0.20591082 0.035391662 -0.29504064 0.0759859 -0.20712447 -0.055100493 0.22241785 0.21267372 0.079356804 -0.059165612 -0.13661928 -0.19574963 -0.06053866 0.030459182 -0.076843254 -0.097785816 0.017821042 -0.23161145 -0.28040162 0.020556524
tt__composer 0.27317417 -0.2857865 -0.15728357 -0.2182726 0.21963751 0.09294506 -0.20222202 0.02783982 -0.2954529 -0.10268213 -0.19190918 -0.09786517 -0.011311764 0.08111885 -0.025574205 -0.016659368 0.018635986 -0.019862734 0.019607723 -0.11710858 0.13908786 -0.04504683 0.22876512 -0.0893452 0.14226991 0.051282544 0.0013031479 0.12771004 -0.07665322 0.049824208 -0.17988327 -0.026964393 -0.18548304 0.09061094 0.027360145 -0.028795479 -0.07435435 0.17460078 -0.0145401405 -0.13194911 0.024537168 -0.037561134 0.13435343 -0.12211894 0.21842095 0.03798138 -0.07594513 0.057873208 0.049249038 -0.013143725 -0.0783144 -0.03623323 0.07517465 0.020922031 -0.21723597 -0.11856102 0.07963102 -0.052312665 0.08049323 -0.037042145 -0.040549137 -0.06836833 0.031842012 0.13641047 -0.07190265 -0.10883062 0.055772938 0.15085734 -0.15245761 -0.014968205 -0.019647012 0.00672125 -0.14645435 -0.15241793 0.07880412 -0.06600597 0.03321172 0.09149279 -0.028237874 -0.0560391 -0.03039777 -0.018832432 0.124651544 -0.012845502 0.0411823 0.15572324 -0.10924642 0.019728223 -0.055451375 0.08271979 -0.15012294 -0.08937757 0.15230408 0.06076778 0.031495336 -0.07857526 0.046677876 0.058159083 -0.06444855 0.1002484 -0.035828896 -0.056852244 -0.030409912 -0.0020903659 0.04038885 0.011110366 -0.023072999 0.19360636 -0.0032661334 0.04274927 0.023555698 -0.07842374 0.011531237 0.012312741 -0.048436996 -0.094931915 0.025651824 0.029168066 0.06330679 0.040920645 -0.06789009 -0.0599061 -0.083451994 0.008578808 -0.026026063 -0.07072488 -0.15419763 0.1803054 0.083465405 -0.023924844 0.12544249 0.044119794 0.0066202944 0.03486761 0.022141527 -0.014907495 0.04506289 0.15220477 -0.1032433 -0.031157719 0.022766087 0.10548868 -0.05476359 0.06186154 0.0076267025 -0.088810794 -0.19851208 -0.051022682 0.044859428 0.06283495 4.2666215e-08 -0.079730056 0.020867256 0.13956621 0.003773446 -0.044538483 0.05825484 -0.13336371 -0.09483237 0.063333735 -0.24041738 -0.09530185 0.25713757 -0.2309744 -0.024498438 0.041886445 -0.061428346 -0.079937585 0.2800428 -0.0043717036 -0.12426378 0.081264265 0.19637421 0.039207134 0.18202645 -0.06979459 -0.037089244 0.05148017 -0.14786452 0.025305875 0.07469156 0.01454195 0.17150198 0.0029274144 0.031603917 -0.02020968 -0.076982945 0.019557692 -0.028434416 0.11696385 -0.005205167 -0.18787806 0.17481297 0.15261512 0.17155334 -0.07890805 0.09392304 -0.13129668 0.048627384 0.043022275 -0.07946269 0.107599795 0.022466443 0.07223743 0.101797804 0.075642414 -0.094278134 -0.086887136 0.14204076 0.2010979 0.03828694 -0.17098108 -0.050659038 0.01865003 -0.050991956 -0.10939111 0.122692786 0.04164276 0.06844297 0.1042608 -0.02502802 -0.16415128 0.027812455 0.006603616 0.03232973 -0.0568444 0.024839558 0.100230195 -0.18402635 0.03355572 0.32823953 -0.019693496 -0.12738727 -0.18813014 -0.15834075 -0.060921505 -0.13445348 -0.05123516 0.0116832955 -0.2090087 -0.029428333 0.050852012 -0.13550366 -0.12372241 0.07634394 0.00868132 -0.036407102 0.04866679 0.11313724 0.1356759 0.054497216 -0.009834069 -0.07426185 0.115431435 -0.06455171 0.0073173717 0.09984258 0.25609282 -0.13605018 -0.033333886 0.08691553 -0.09145033 -0.003008066 -0.044596735 -0.18980777 -0.0791533 0.036184017 0.06927755 -0.026986258 0.10446542 -0.04138205 0.053702533 0.05818941 -0.12373529 0.07978949 0.16418396 -0.04222319 -0.124850854 -0.22356263 -0.03495251 -0.08074881 0.11939396 -0.017626476 0.0062535834 -0.17602068 0.059227675 -0.03934921 -0.053879477 0.0032299543 -0.089459136 -0.06556472 0.005940539 0.042844113 0.17366521 0.20709884 -0.04048353 0.0848318 -0.121871255 -0.10919095 0.014588207
tt__miscellaneous 0.18682984 0.0430675 0.0009242199 -0.14345904 0.30359715 0.29669088 -0.10370293 -0.08733708 -0.40477633 0.018428702 0.029761683 0.098781474 0.12952113 0.11277431 0.045148227 -0.18439405 -0.041913517 -0.1619684 -0.051622007 0.03283692 0.10869631 -0.08374863 0.28091207 0.07982569 -0.016042314 -0.09258508 -0.02699549 -0.052203465 0.0640155 0.18644066 0.15090504 -0.20972587 0.007787246 0.052498043 0.052236464 0.026818788 -0.039165508 -0.050631545 0.087599486 -0.20669267 0.059964087 -0.017888002 -0.020086668 0.05819244 -0.0072399117 -0.040678855 0.104061976 -0.12903167 0.044925548 -0.03419913 -0.11605065 -0.06199111 0.072276 0.002358815 -0.21676867 0.06365511 -0.037085637 -0.08105647 0.18367228 0.067787744 -0.10645222 -0.038482316 -0.05773348 -0.047453873 0.088131644 -0.01209888 0.044519864 0.06041399 -0.09088237 -0.05930739 0.04507862 -0.09168918 -0.06202338 -0.08493894 0.20420307 -0.16444568 -0.07046864 -0.09792569 0.096543886 -0.25121292 -0.056548312 0.020578198 0.1278397 -0.0118185375 -0.051524285 0.13925098 0.0050423252 0.105065994 -0.21652868 -0.031579226 -0.08322888 -0.13860355 0.062964395 0.18494734 -0.11819169 0.093713105 0.072744824 0.008817433 -0.06200865 0.018197203 -0.07719825 0.08506236 0.050980583 -0.23570389 -0.078285255 -0.083780766 0.081010446 0.032134138 0.042891786 -0.002998449 -0.046461064 -0.0837159 0.17717132 0.19602656 -0.042050757 -0.17037304 -0.110436246 -0.04823818 -0.036732633 0.18068111 0.026847512 -0.1365543 0.023702487 -0.036508977 0.014916036 0.02325077 -0.033250738 -0.022557335 0.14381878 -0.04793618 0.11148352 -0.046076655 0.06335794 -0.024610193 0.03621211 -0.01643251 -0.012967836 0.085927665 -0.09621018 -0.17195505 -0.018803662 0.17520717 -0.0887431 0.057107087 0.12461496 -0.16414964 -0.29127175 0.002638441 -0.17580009 -0.096672565 0.015838489 -0.10432031 -0.035330914 0.10110112 -0.16497256 0.03723216 0.009483433 0.081788935 -0.18193363 0.10198296 -0.18412897 -0.039178316 0.096531786 -0.23165946 0.0072758477 -0.030154673 0.14663069 0.016264243 0.09257079 -0.048179697 -0.06153044 0.050543115 -0.021499066 0.05045007 0.21256542 0.015698973 0.09600554 0.029761026 -0.24041869 0.06767553 0.2273192 -0.06242053 0.16845506 -0.13055034 0.08141202 -0.21079887 -0.20078824 0.044311617 -0.16675821 -0.08100612 0.034296975 -0.3141864 0.116537936 0.16589549 0.19121335 -0.19269858 0.11603586 -0.08748585 -0.21598202 -0.06559292 -0.061397858 -0.04358655 0.03688166 -0.07657681 -0.14340018 0.04796033 -0.03857668 -0.12578242 0.041724063 0.19202791 -0.008553738 -0.12188752 -0.12291593 0.1025442 0.011625921 -0.026146011 -0.13093463 -0.052292146 0.076545544 0.1474211 0.030330218 -0.08338293 0.104539506 -0.088744394 0.0556486 -0.12701361 -0.03561074 -0.0388557 -0.105904885 0.107347436 0.23365259 -0.1594146 -0.09427247 0.049606632 -0.08676046 0.08135563 0.084123604 -0.11191485 0.13175698 -0.26848313 0.13407613 -0.08052987 0.09061078 0.102341026 0.18506436 0.03166149 -0.04661713 -0.24017076 0.10832114 -0.004995783 -0.09866057 -0.117853135 -0.05407453 0.031897865 -0.010618221 -0.030476997 0.037436742 -0.11359982 -0.12191312 -0.126661 0.054253824 -0.13995373 0.007859772 -0.20194645 -0.17459273 0.10920872 0.09229386 0.1346199 0.046799615 -0.015435566 0.043606505 -0.013567181 0.16136421 -0.02961945 0.014519064 0.035299756 0.02641927 0.035223383 -0.11874992 0.007039788 -0.103706114 0.12946837 -0.11601194 -0.11686204 -0.037672993 0.10873424 -0.14706157 -0.076011285 0.12040826 0.09756144 -0.0390471 0.080140576 -0.057420515 -0.0009555621 0.19310908 0.02304745 -0.1304796 0.03780996 0.11490499 -0.020117378
crew -0.020063968 -0.10256189 0.076329865 -0.04174307 0.15091084 0.33035183 0.044710036 0.06417937 -0.04314591 -0.0060581733 0.035638794 -0.08929368 0.12673748 0.0536564 -0.031213008 -0.15816423 0.06705257 -0.018906603 -0.08431409 0.031690866 0.12559406 -0.16111381 0.2725372 0.09804465 -0.09219825 -0.18582964 0.011109387 -0.027561145 -0.019918099 0.2122706 0.104154885 -0.09747263 0.03570604 -0.016469963 0.112419486 -0.059190556 -0.17545275 -0.053544767 0.031443175 -0.094973005 -0.011624036 0.0012462463 0.014778206 0.11201105 -0.008522676 -0.18140158 0.08933408 -0.10204489 0.12265522 -0.07963169 -0.11884538 -0.06294428 0.07715714 -0.04604689 -0.19299163 0.010094525 -0.120011866 -0.1854365 0.2992265 -0.014696782 -0.11211825 0.117122315 0.010774817 -0.09700544 0.15342797 -0.13614473 0.054018617 -0.089489914 -0.1569063 -0.027162045 0.13796887 0.017417967 0.026706344 0.0634974 0.07817084 -0.11670806 0.02533636 -0.11636549 -0.0022139687 -0.17233282 -0.14477354 -0.11518991 0.04703552 -0.07243021 -0.07187048 0.110173196 0.084777124 0.06594118 -0.18282399 0.058108233 -0.06112935 -0.14802307 0.04816997 0.21958639 -0.19090614 0.22393857 0.087838456 0.025929052 -0.06772176 0.088815846 -0.055166658 0.13434622 -0.046963412 -0.19395131 0.1488123 -0.10740052 0.06939126 0.11748495 -0.03607703 0.10668984 0.05898505 0.14330737 0.156038 0.19694729 -0.049088787 -0.24036762 -0.053494565 -0.11635204 -0.095532365 0.12507081 -0.09324263 -0.15490901 0.088865764 -0.017403414 -0.016819436 0.02950877 -0.0054626595 0.091925845 0.15736467 0.022231258 0.024565862 -0.09283369 -0.04253888 -0.027070101 0.04940743 -0.036922622 -0.09544904 0.22251186 -0.13299042 -0.22557466 -0.020813802 0.17614014 -0.0850989 0.047246385 0.12890728 -0.17839311 -0.19251923 0.061372988 -0.07163432 -0.10238355 0.051071905 -0.06777086 0.05846701 0.11605352 -0.15244894 -0.020060865 -0.08857787 0.0156223895 -0.2173666 0.2155761 -0.16555358 -0.16617967 0.033892624 -0.19109781 -0.08919664 0.018170629 0.093505576 -0.009206833 0.023208607 0.06377338 0.024912152 0.059257846 -0.011087934 -0.04092663 0.11565914 0.021782774 0.10145903 0.060913146 -0.23602545 0.1328221 0.19943956 0.034922745 0.10886768 -0.007926887 0.0643941 -0.23883747 -0.11015125 0.08423926 -0.10126215 -0.017606681 -0.023846688 -0.23008426 0.087699585 0.27810192 0.3224357 -0.18906921 0.04031755 -0.061073262 -0.20478715 -0.019503558 -0.024567291 -0.06176377 -0.011104184 0.011151833 -0.14989798 -0.0330996 -0.03852168 -0.13574867 0.10074149 0.083953895 -0.072173215 -0.14906226 -0.16889828 0.057408284 0.056652553 -0.01072061 0.021872899 -0.013110979 0.1700191 0.40080073 0.11442298 -0.030489653 0.16659294 -0.057958048 0.19778271 0.07158657 -0.079900354 -0.029671038 -0.061462 0.17128828 0.21592085 -0.18381363 -0.1081658 -0.060245797 -0.12087558 0.14219613 0.05768369 -0.043641638 0.114207044 -0.063331306 0.11685669 -0.14136833 0.21101388 -0.025673337 0.035047557 0.063845016 -0.024644151 -0.07826457 0.15221797 -0.10166394 -0.09504099 -0.07690271 -0.030013913 0.008096062 0.046400562 0.027211498 0.15778951 -0.047529005 0.021844892 -0.049864084 0.021317132 -0.12820365 -0.06794333 -0.048792608 -0.071618155 0.025441729 0.07641105 0.046071902 0.120524526 -0.009735356 0.06986703 -0.119770914 0.09478952 -0.2721469 -0.0109107485 0.0525368 0.056641024 0.06740272 -0.33235338 0.088870354 -0.12042295 0.23780477 -0.09116819 -0.13256575 -0.11653493 0.12680456 -0.15008861 0.08035978 -0.055625763 -0.043263197 -0.14581513 0.030490605 -0.067243256 0.0379071 0.20758183 -0.003605851 -0.07885847 0.044976763 0.09352435 0.078075856
tn__3 0.23443328 -0.057392016 -0.03503198 -0.06730033 0.1050119 0.0198531 -0.03457475 -0.021596294 -0.023187937 -0.06822875 0.10446295 0.042595252 -0.02721645 -0.1442127 0.18879342 0.0635663 -0.026242396 -0.093595214 0.02882356 -0.056323886 0.16211942 0.0823237 0.0056749727 0.06812106 0.036411975 0.062655136 0.19267587 -0.12768745 0.000954435 -0.07885037 -0.11013501 0.2514509 -0.12513995 -0.10283884 0.05750995 -0.05123262 0.11245753 0.16587803 0.050189275 -0.22810376 0.099864095 0.009692501 0.36377606 -0.1547779 0.17153382 0.06482842 -0.024547242 -0.15547211 -0.09178034 -0.031372093 -0.2420926 0.124125816 0.048120867 0.121869676 -0.1302312 -0.12920009 0.12805542 0.11017131 0.006034516 0.09453737 -0.16781747 -0.0037045355 0.0388626 -0.033617064 -0.0130610205 0.04372544 0.21720268 0.057914656 0.14007159 -0.103532314 -0.02736805 -0.10120372 -0.08052926 0.095305406 0.032658145 -0.113896936 0.10360016 -0.11213923 0.14122169 -0.0870637 -0.07182737 0.025714617 -0.078374326 -0.1266049 0.118420586 0.21195646 0.0045044906 0.011535191 -0.1645512 -0.13034941 -0.114178754 0.018719139 0.1672966 0.043241717 0.13978998 0.102992 0.04972448 0.13132858 -0.029413823 -0.015040091 0.15296169 0.10547941 -0.040895708 -0.044761226 0.28099367 -0.01415139 0.047509465 0.077376336 0.08730162 0.1264712 -0.09403611 0.18414767 -0.07572846 0.047816593 0.02983815 -0.076024316 0.028650213 0.08947264 -0.19659944 0.05521479 -0.012404085 -0.110741414 0.04759605 -0.013223744 0.09812466 0.027570574 -0.08389974 0.014371032 0.036086284 -0.013029891 0.04777032 0.01640193 0.07328721 0.045244325 -0.07452296 -0.046105813 -0.0007102211 0.00585956 -0.038616642 -0.022613877 0.02205977 0.05443122 -0.058743943 0.0704892 0.14393453 -0.055569116 -0.1309212 0.0083003575 -0.24028584 -0.1746227 0.22936633 0.08576567 -0.015187761 0.13129432 0.062315557 -0.24381958 0.12782419 0.05862859 0.13642052 0.021807246 -0.053750835 -0.04065467 -0.024435919 -0.029977918 -0.11832237 -0.07907364 -0.16960217 -0.038652956 0.12521477 -0.1649357 -0.07204572 0.060666002 -0.07591944 0.06875777 0.10609635 -0.15249024 0.0065107914 0.042874034 -0.03109102 0.074265845 0.014368891 -0.016636558 -0.083168626 0.026487824 -0.09806473 -0.07316106 0.006549819 -0.10327522 0.015686153 -0.11184043 0.05082551 0.03917248 -0.031188942 -0.16090883 -0.03299968 0.05959077 -0.02068621 0.10925083 -0.067670144 0.01906765 -0.11421808 0.07035062 -0.0039351904 -0.045784503 -0.12075945 0.0075749066 0.0702953 0.06955844 0.011357314 -0.076368324 -0.05150789 0.1923619 0.12016849 -0.09378301 0.023563374 -0.11200694 0.15174733 -0.0049801916 -0.081166886 0.13109884 0.011133541 -0.068740815 0.10868815 -0.12622425 -0.034594603 -0.056890305 0.07578948 -0.0707637 0.1362958 0.086092085 -0.026733378 -0.14466193 0.1444587 -0.06584643 0.07719969 0.15678947 -0.010946092 -0.016238296 0.16295035 -0.056421343 -0.03480475 0.10502325 0.1505049 0.12870716 0.12922941 -0.087095656 -0.14808546 -0.16759382 0.067770354 -0.04076043 0.1311753 -0.08770228 -0.023339357 0.014161586 -0.011792959 -0.041999258 -0.09428202 -0.080277115 -0.12962903 0.1069921 0.03247875 -0.11987813 -0.0021893084 0.007581493 0.12670432 -0.007181286 -0.15556888 -0.03179922 -0.03978538 0.112343945 0.08356982 0.06943575 -0.05189817 -0.06999112 -0.07551118 0.06884937 0.004444044 0.08679166 -0.05941546 -0.19563432 0.029457869 -0.07156244 0.05379184 -0.0077509927 -0.018257875 -0.06664173 -0.053549603 0.15863149 -0.020836128 -0.16102836 -0.06686805 -0.08379036 -0.01602776 0.0858549 -0.0046967 -0.059625514 0.08608583 -0.17174184 -0.09793482 -0.0501917
tn__7 0.07573823 0.007651775 0.03437976 -0.090939544 0.21177363 0.054277685 0.09350776 0.08804641 -0.36642665 -0.07221345 0.14383246 0.008434302 -0.042991254 -0.048724756 0.03868014 0.027985927 -0.11659649 0.030937206 0.07537503 -0.115246944 -0.09006485 0.093879916 0.14704789 0.15194778 0.190748 0.027499206 0.13286929 -0.13884318 0.021963717 -0.26988772 0.0675583 0.08960873 0.010079843 -0.11995843 0.116675645 -0.03789948 0.08498457 0.2019221 0.07170024 -0.21944065 -0.0014165866 0.0029986175 0.3073635 -0.060846366 0.043470636 0.034659617 0.16844769 -0.17599502 -0.20617022 -0.064734854 -0.16088054 0.030315308 -0.021213183 0.15201315 0.16989893 0.046760164 0.2203297 0.14077595 -0.17048688 0.11786141 -0.13012722 -0.30584517 0.1454369 0.18953693 -0.06119765 -0.016057907 0.1029714 -0.17698842 0.12192383 0.10092388 -0.021014724 -0.0642297 -0.0979995 -0.0035886662 -0.15425356 -0.046203505 0.18519703 -0.08831156 0.04842551 -0.07120685 -0.074947216 -0.15376215 0.15574373 -0.10581707 0.09483993 0.1954605 0.023636324 0.028790474 -0.20338878 -0.099289306 -0.039825156 0.08670393 0.10425234 -0.016368648 -0.07353567 0.12826139 0.06869397 0.021627033 0.20441538 0.035532124 0.04440558 0.12966157 0.08038082 -0.07378907 0.048358325 -0.023092795 -0.10933485 0.04883863 0.014865246 0.10117091 -0.16377872 0.1500976 0.098041266 0.06829483 -0.033489313 0.075828195 -0.028498994 0.051637888 -0.09960923 0.064660124 0.079459235 -0.061893128 0.041586757 0.031972297 0.10454621 0.07544473 -0.0559881 0.02770298 -0.10044879 0.031341266 -0.04393163 0.1292264 0.069433175 0.11740465 -0.025448488 -0.1320317 -0.03643559 0.0032828897 0.041654978 0.17536055 0.1856442 0.027791249 -0.18342482 0.114804804 0.14453411 -0.06796006 0.009971305 0.027551122 0.07342978 0.015543455 0.09076064 0.029647645 0.09823459 0.18103582 0.013887971 -0.14999133 -0.0727976 0.052594632 0.0113298455 0.17790881 0.05167237 -0.016505683 -0.18904473 -0.13940464 -0.15483817 0.027994491 -0.10504592 -0.0055857804 0.037094045 0.020852264 -0.17337807 -0.07666055 -0.0219036 0.039442446 0.01891168 -0.09652562 0.046813585 0.03143004 -0.034965556 0.043125413 -0.09144705 0.083103046 0.1737644 0.0028715124 0.020211726 0.054231502 -0.006598184 -0.04285405 -0.17104673 -0.060500994 0.15718842 0.14215232 0.15653114 -0.07466953 0.003450143 -0.12623277 0.043282058 0.00078951113 0.048887912 -0.05082038 -0.04411753 -0.036604825 0.18076389 -0.174268 -0.085312165 0.17312233 0.17670625 0.079024166 0.035711437 -0.044980004 -0.026611283 0.07105381 -0.015528932 0.007784856 0.119891845 -0.19886895 0.1459358 -0.085144706 0.09375102 0.11916954 0.03662049 -0.0823049 0.1762926 -0.13686205 -0.064859964 -0.05288654 0.077156566 -0.022194456 0.25677514 0.17080857 0.04007366 -0.109627135 0.14603777 -0.107309975 -0.23604095 0.089546934 -0.021432752 -0.1535317 -0.030816305 -0.17143714 0.05989145 0.10473744 0.1072053 -0.01246004 0.16199252 0.0136961 -0.08346865 -0.1366603 -0.031480704 -0.07728784 -0.05228662 -0.21336347 0.061036225 0.063946344 0.08174633 0.021091385 -0.032649927 -0.047019817 -0.051317625 0.054370318 0.04890874 -0.074777 -0.050085288 0.06248699 0.023863276 0.12543981 -0.10828773 0.011771221 -0.0229766 0.046620447 0.03155776 -0.007920006 -0.08715359 -0.20097381 -0.14755481 -0.12802817 -0.06253972 0.15796287 0.0421823 -0.13405202 -0.09398688 0.092960276 -0.14404097 0.06870545 -0.08919825 0.02044605 0.030061783 0.14806384 -0.093618885 0.022927355 -0.06131413 -0.11738276 -0.20578943 0.10625744 -0.17328314 -0.04087681 0.060857207 -0.08524016 -0.22127679 0.23709244
tn__10 -0.15033539 0.18426745 -0.005282039 -0.13176829 0.011702295 0.14958775 0.118494205 -0.10577353 0.0040917527 0.050785482 0.14648694 0.12908581 0.018774139 0.14766905 0.0010632151 0.10070498 0.022676148 0.00937899 -0.026979232 0.104533516 0.035979126 -0.03239131 0.024794068 0.114082575 0.04012056 -0.089761704 0.019743329 -0.14312688 -0.04917051 -0.017624803 0.07307413 0.024666734 -0.0070007243 -0.049090873 0.11964241 0.06881326 -0.046617948 -0.012580661 0.058912635 -0.18308486 0.0055066673 -0.055124104 0.18647923 -0.056645364 -0.09699274 -0.044057705 -0.049627114 -0.17730933 -0.0053610946 -0.014672731 -0.23710687 0.09406913 0.1360795 0.22408523 -0.2560061 0.0052153193 0.12201593 -0.022848284 0.25316963 0.13578904 -0.08206971 -0.14860043 0.087168954 -0.08958334 0.058177467 -0.1561615 0.11132943 -0.025956508 -0.00040152547 -0.015531734 0.086956985 -0.1931377 -0.041946266 -0.010565378 0.13930058 -0.2846272 -0.008860614 -0.12770566 0.06990732 -0.30368525 -0.1281218 -0.098242216 0.044114117 -0.17449526 0.01999495 0.17320557 0.043413345 0.05080497 -0.23845907 -0.06410086 -0.02575866 -0.051591754 0.105842225 0.2416917 -0.119896956 0.18359673 0.06150257 0.09593093 -0.025632344 0.0076662605 -0.0429583 0.20953798 0.03308086 -0.104108766 0.06836788 0.031996652 0.05028622 0.092181906 0.010632602 0.0054674833 -0.035421114 0.09125987 0.10462414 0.06815135 -0.012827529 -0.10157077 -0.0041800896 -0.052369893 -0.20903975 0.1269047 -0.032995883 -0.072042726 0.11747805 0.006843351 -0.0044650524 0.077563584 0.019840347 4.6087036e-05 0.120312825 0.07002311 0.042750165 -0.05151643 0.13775547 0.0070809033 -0.013269393 -0.032779094 -0.08044011 0.13900729 -0.101093866 -0.13927363 0.005996138 0.07255564 -0.029062238 0.124374725 0.024623288 -0.18154019 -0.23425286 0.028519524 -0.10954125 -0.10533833 0.08201808 0.042011775 -0.11747124 0.089377284 -0.066467814 0.07387296 -0.035595164 0.08439372 -0.04116706 0.031640276 -0.0013972336 -0.016082022 -0.101318106 -0.14009422 -0.08296157 0.07484776 0.11012283 0.053361297 0.07053614 -0.008657612 -0.08590421 0.02820431 -0.04215443 0.021472972 0.22030394 -0.1221142 0.04828664 -0.026300425 -0.15931045 0.12481417 0.09689658 0.031063978 0.099891275 -0.13261831 -0.011732045 -0.22205742 0.0014030383 -0.07696517 -0.012815464 -0.12957305 0.043421715 -0.093294434 0.028398355 0.060479913 0.14920506 -0.1579733 0.014687274 -0.0036132282 -0.19236265 -0.0152217345 -0.09099304 -0.030219972 0.01362595 -0.09945787 -0.11878591 0.030156842 0.017403584 -0.046191838 -0.089229435 0.13161534 -0.0028777507 0.055134837 -0.07055509 0.0755491 -0.026168434 -0.046913166 -0.07417507 -0.078028716 0.11028175 0.19275565 0.14306854 0.034207646 0.14153461 -0.09345225 0.11494876 -0.0119305 -0.029610606 -0.04467451 0.087816 0.17478476 0.19632916 -0.079199865 -0.03968412 -0.08232602 -0.06342001 0.111638136 -0.00864012 -0.15164459 0.23278582 -0.14667547 0.15329108 0.02038607 0.21794716 0.08124643 0.18889242 0.057338625 -0.065990925 -0.17800878 0.023047829 -0.107594304 -0.08380212 -0.095557325 -0.09221038 -0.021955216 -0.05232612 0.021479595 0.041130695 -0.16480707 -0.074954055 -0.026040673 0.05718176 -0.1196081 -0.08049559 -0.11897273 -0.010931665 0.0512343 0.06785451 0.03135272 0.011875017 -0.018953064 0.092284344 -0.03491632 0.092844985 -0.17447826 -0.082916655 -0.012668101 0.004426378 0.12674366 -0.15916538 -0.106223576 -0.17176971 0.104832016 -0.18116498 -0.1303832 -0.14487189 0.019931825 -0.0029017234 0.18435578 0.044432268 -0.013998391 -0.1634791 0.089817524 -0.051121123 0.0839198 0.126263 0.0048939073 -0.123269096 -0.040078726 0.058000565 0.008756668
tt__costume 0.43304145 -0.3553917 0.06391912 -0.15493517 0.50723267 0.26946613 -0.22684196 0.18897939 -0.4171428 -0.10596231 0.0061075618 0.052643098 0.1082739 -0.3343856 -0.13569313 -0.24630272 -0.17300336 0.05969538 0.077362314 -0.1002355 0.028229635 -0.055751175 0.42657185 0.061697196 0.13871294 0.02843415 0.028202152 -0.013996382 -0.004883419 -0.17889786 0.0663103 -0.043898437 0.02320122 0.03699464 0.041015938 -0.08999899 -0.018513825 0.17955422 -0.010321231 -0.1784728 0.00751256 0.0028153884 0.13304041 -0.057289544 0.23751451 0.0066408403 0.21214984 -0.1155069 -0.09674437 -0.115351014 -0.08143675 -0.11000642 -0.07000603 -0.060253933 0.16117196 0.04217021 0.10706472 0.051826116 -0.10169796 0.030020446 -0.14997517 -0.18429701 0.03939124 0.20802192 -0.019351697 -0.052782603 0.021344231 -0.13609171 -0.033130847 0.023609422 -0.042886667 0.108671404 -0.0667327 -0.01641204 -0.15763496 0.061032962 0.12712313 -0.054539647 0.024731277 -0.047224957 -0.06336873 -0.11737148 0.20046596 -0.0055327853 0.05757879 0.20310833 -0.015860034 0.03411128 -0.12449274 -0.0073414263 -0.112780854 -0.07486248 0.07667157 -0.010622118 -0.0848555 0.10767046 0.10990456 0.0027656327 0.12086031 0.10526525 0.04107939 0.020636726 0.032196224 -0.16209368 0.0025223964 -0.081839055 -0.092261285 0.0379391 0.017019017 0.13193111 -0.077233605 0.064194426 0.13030086 0.13888142 -0.08245987 0.02949739 -0.034934446 -0.00041590055 0.09522792 0.06977333 0.052775115 -0.066397354 -0.03322683 -0.005420891 0.07822105 0.0035023799 -0.142898 0.14165694 0.0074592666 -0.053446136 -0.003961312 0.10676123 -0.059791382 0.018305957 0.0261498 -0.10683399 0.025333535 0.0068105026 0.018973537 0.08944503 0.07855528 0.055615973 -0.14139058 0.042672712 0.15336227 0.013843765 0.037775386 0.037464354 0.0282242 0.042859532 -0.048997857 -0.11499288 0.14427759 0.1399591 -0.01609481 -0.08353096 -0.069655135 0.048573334 -0.12832732 0.1881172 -0.12752864 -0.080151446 -0.024451725 -0.1448417 -0.11825581 0.018185707 -0.1298913 -0.059314948 -0.019546565 0.054379012 -0.0989445 -0.01756466 -0.0021856257 0.05152934 -0.09269615 0.05300582 0.053410396 0.08511822 -0.04258162 0.037190814 -0.031953745 0.024348136 0.15118441 0.09861239 0.071886726 0.08490833 -0.113024 0.06935382 -0.1989108 0.05795507 0.072667345 -0.10936729 0.22267897 0.13595563 0.13587655 -0.18608846 0.10106718 -0.09446884 0.012072149 -0.06975217 0.049990505 -0.016749388 0.124220215 -0.071100146 0.005604638 0.18014231 0.09396996 -0.021137277 0.08662768 -0.008768263 -0.008988954 -0.0974117 -0.09998004 0.0174144 0.15882252 -0.0987791 0.15710297 -0.027377734 0.10472421 0.08557481 -0.0761018 -0.12567408 0.07942119 -0.11328033 -0.00871767 -0.021562533 0.00023976059 0.016974457 0.08292484 0.118364766 0.05563756 -0.10043554 0.07961493 -0.052577112 -0.22139433 0.032076154 0.040493548 -0.11495074 -0.12883 -0.19520834 0.057642803 -0.040049665 0.041238252 -0.06517125 0.082027204 0.06376244 -0.054582376 -0.09858933 0.07626882 -0.0030705184 -0.040059473 -0.20302004 0.034450635 0.07275228 0.08761131 0.0088500865 0.059063848 0.05019017 -0.01734499 -0.00059255114 -0.037639808 -0.050980184 -0.044857036 0.041790478 -0.08619204 0.16062711 -0.07177854 0.06252278 0.089022875 0.040746666 -0.053065944 -0.018951949 -0.06259628 -0.20800667 -0.027321238 -0.060632855 -0.02250708 0.029182194 -0.050724242 6.6793495e-05 0.0003027012 0.12862253 -0.0610936 0.032962497 -0.025189403 0.097920015 -0.13548274 -0.1019751 -0.031604078 0.04839405 0.033837344 -0.029510254 -0.1945391 -0.04978888 -0.0947581 -0.039089628 0.03032874 0.041929755 -0.114822455 0.18313947
